{"learner":{"attributes":{"best_iteration":"149","best_ntree_limit":"150","best_score":"0.3487349489893035","scikit_learn":"{\"use_label_encoder\": null, \"n_estimators\": 150, \"objective\": \"binary:logistic\", \"max_depth\": 5, \"max_leaves\": null, \"max_bin\": null, \"grow_policy\": null, \"learning_rate\": 0.15, \"verbosity\": null, \"booster\": null, \"tree_method\": null, \"gamma\": null, \"min_child_weight\": null, \"max_delta_step\": null, \"subsample\": null, \"sampling_method\": null, \"colsample_bytree\": null, \"colsample_bylevel\": null, \"colsample_bynode\": null, \"reg_alpha\": null, \"reg_lambda\": null, \"scale_pos_weight\": null, \"base_score\": null, \"missing\": NaN, \"num_parallel_tree\": null, \"random_state\": null, \"n_jobs\": null, \"monotone_constraints\": null, \"interaction_constraints\": null, \"importance_type\": null, \"gpu_id\": null, \"validate_parameters\": null, \"predictor\": null, \"enable_categorical\": false, \"feature_types\": null, \"max_cat_to_onehot\": null, \"max_cat_threshold\": null, \"eval_metric\": null, \"early_stopping_rounds\": null, \"callbacks\": null, \"classes_\": [0.0, 1.0], \"n_classes_\": 2, \"evals_result_\": {\"validation_0\": {\"error\": [0.1823256279429608, 0.1893781808869154, 0.19637269601667642, 0.189644239064569, 0.18983694619369962, 0.18857287906739675, 0.19098025625028936, 0.1913790835546712, 0.19210555469172527, 0.19188409414903992, 0.1923032658135942, 0.18847714822104428, 0.1875892108355983, 0.1849482373248866, 0.18479002983943343, 0.18494555483630956, 0.18424118226320882, 0.18324050050857205, 0.18132600681018268, 0.180696561840221, 0.17845080470244196, 0.17814100918721995, 0.17682159434586892, 0.1766581536616354, 0.17663429767376526, 0.17490290111628, 0.1746054657197954, 0.17430896202139917, 0.17261064887550223, 0.17230444854049545, 0.17118666953661907, 0.16988637186626282, 0.1699015244220084, 0.16970920206156442, 0.16925593131317468, 0.1692482746554072, 0.16844174018259825, 0.16842840074932072, 0.1683354410960859, 0.1674531427236163, 0.16703969793797982, 0.16655844610938836, 0.16604433553007675, 0.16582414181451793, 0.16577763845419505, 0.16477543244638979, 0.16441113348200712, 0.1644199471357297, 0.16387312613715171, 0.16375868412053224, 0.1636097918989919, 0.16319005783619306, 0.16302822586674287, 0.16263563574126672, 0.1622708386934119, 0.16209093618910037, 0.16201698208584053, 0.16194355005684385, 0.16192695554173364, 0.16176473724109205, 0.16149379881578718, 0.1611949843624668, 0.16093597535428036, 0.16080870684296988, 0.16067184523042483, 0.16053998267033703, 0.1604979148651065, 0.16038417600091254, 0.16017693279552817, 0.16007575882241354, 0.159981910256216, 0.15994444243396486, 0.1598706808411945, 0.1597860885901281, 0.15961759132988387, 0.15955716840930137, 0.1591810546203902, 0.15917310383451805, 0.15911334101327737, 0.15902496855485584, 0.1588223506319415, 0.15856253970377704, 0.15837934008207144, 0.1581000951060755, 0.15808265503910995, 0.15758131384173257, 0.15730642045473298, 0.1573379188569398, 0.15733845398349325, 0.15716945697879198, 0.15718898286108365, 0.15706150722461962, 0.15702964295034932, 0.15700043499521174, 0.15694608345782565, 0.15678983397344454, 0.15672986096478303, 0.15662527419568023, 0.1563805069684966, 0.15618735245035664, 0.15615327158639916, 0.15603929431712674, 0.15590924884168306, 0.15580782610575084, 0.15581580137021442, 0.15574682348751787, 0.15569192992855563, 0.15553660549662948, 0.15539252359081554, 0.1551484233713459, 0.15492368053866787, 0.15477189442949826, 0.15475281961198012, 0.15463322398818358, 0.15455601770592536, 0.15453131745957635, 0.15452673179417084, 0.15443647169246702, 0.15440912737322493, 0.15437530201472802, 0.15437926129613178, 0.15432530147219153, 0.15426879546472355, 0.15426191680479412, 0.1542321606202485, 0.15423322303414033, 0.1541292011742709, 0.15405838279923553, 0.15402864202003785, 0.15394149254511091, 0.15390737465604, 0.15375200113697976, 0.15370784247436084, 0.1536894308954194, 0.15364557028009013, 0.15354929029781927, 0.1534743039002962, 0.1534588278477248, 0.15338818587555061, 0.1533854387461922, 0.15333453031768043, 0.15327264715291736, 0.1532144667465804, 0.15311588175327193, 0.15308412073448877, 0.15299111798680695, 0.15297715730886807, 0.1529763896991678, 0.15285245835888792, 0.15283379340684564], \"logloss\": [0.6417033907473473, 0.6029790038914462, 0.5732407679616495, 0.549521186799337, 0.5307077336976054, 0.5155750079718083, 0.5035900381839457, 0.49331378076159693, 0.48478743324804635, 0.4783202497701464, 0.47245043587296864, 0.46667167020400696, 0.46270288913814966, 0.45793846489714346, 0.45473829632179474, 0.45205258666059017, 0.4497982413092183, 0.44760165981650557, 0.44459903400656586, 0.44281147214085187, 0.44004828441547106, 0.43887170439112355, 0.4368767069070392, 0.43601283353077136, 0.4352781681012535, 0.4334939559430354, 0.4327278965193473, 0.4322094859874863, 0.4305269017447954, 0.4300329400108299, 0.4287140916344261, 0.4274745958037164, 0.42713589772657684, 0.4267744406698515, 0.4261089010145106, 0.42577729829763017, 0.4249945734962492, 0.4244888409836759, 0.4242186313734724, 0.42307083770070436, 0.4227838352890163, 0.4222929012567679, 0.42150744261576056, 0.4212583616011513, 0.4205714731511543, 0.4196459531793742, 0.4192700286036126, 0.4191164089741276, 0.41868387014377995, 0.4185164834653132, 0.4183233986478476, 0.41792478397715993, 0.4177686835316487, 0.41740338090461704, 0.4169559532784025, 0.4166919578331632, 0.4165494936248676, 0.4164290121740387, 0.41626830347302335, 0.41598722468540855, 0.41562392093126416, 0.41543362847629195, 0.4151132909721872, 0.41500899489334303, 0.41472959968583334, 0.41443429945636096, 0.414355847988073, 0.4142446821560566, 0.41408375329562247, 0.4138956437404584, 0.4137920199017005, 0.41372751024662774, 0.4135904936796956, 0.4134361689902994, 0.41327500022353886, 0.4131365383521718, 0.4125814780144761, 0.4125062609222827, 0.41236300673341447, 0.4123010214156269, 0.412120406005781, 0.4118459947646048, 0.41169353531406416, 0.4113873478389957, 0.41131902237820045, 0.4109087253346384, 0.4106168200813923, 0.4105475408786116, 0.4104916283075003, 0.4103328480575045, 0.41029911260237983, 0.4102058364384359, 0.4101482044680468, 0.41009789238695443, 0.4100349672789159, 0.40988415163545494, 0.4097963765942006, 0.40974197584262906, 0.40943964311327713, 0.409269334585618, 0.4091953078344485, 0.4090999494813987, 0.4089784084745283, 0.40889642334848453, 0.4088287858248419, 0.4086969030978562, 0.4086764653462679, 0.40841324869928913, 0.40826749074549096, 0.40801690133668406, 0.40782507140805974, 0.4076963787446766, 0.40766139291632414, 0.4075165604940623, 0.407410520470991, 0.4073737040962959, 0.40733307764671395, 0.40725279460805597, 0.40717834372082484, 0.4071161326590782, 0.4070755627147466, 0.4070027829124464, 0.4069408322852887, 0.40691933163311916, 0.40685047886429365, 0.4067933720435833, 0.4066957960559398, 0.406644130214625, 0.40654166662007796, 0.4064996426054126, 0.4064750036140951, 0.4062968584481772, 0.406263910833926, 0.40623852694612633, 0.40616092744703847, 0.40609457302487834, 0.40602414078672694, 0.40594206949741574, 0.40587490789563313, 0.4058391861557306, 0.40576340834422375, 0.40570191732156596, 0.4056575294956535, 0.4055641747807668, 0.4055488006495017, 0.40545210131106274, 0.4054107957193111, 0.40539008529083714, 0.4052808058432858, 0.4052254033386698], \"rmse\": [0.4736642758060893, 0.45317530184049093, 0.4372618084006783, 0.4245457138249992, 0.41456796951201824, 0.40669689168235695, 0.40060306557971165, 0.39543223155247215, 0.39121151734666904, 0.3881614879799336, 0.3854098344710804, 0.3825053335251189, 0.38057702127022985, 0.37806392116740795, 0.37658985079294666, 0.3754443013887926, 0.37436935327812515, 0.37330667108977783, 0.37163190205929947, 0.37074733607699645, 0.3691231188622462, 0.36852079778781854, 0.36742175568942226, 0.3670622985436318, 0.3667309464913337, 0.3656642115311494, 0.3652721256506406, 0.36496914139080316, 0.36392396671840166, 0.3636602698030856, 0.3628643754993835, 0.36205672115090864, 0.36193089347810964, 0.36173897131966287, 0.3613790649298252, 0.361236070912394, 0.36073461758790715, 0.36051492733361384, 0.36038536211193223, 0.3597106985722474, 0.3595084353867556, 0.3592316179561816, 0.35876511010837475, 0.3586170403148444, 0.35832853121291164, 0.35767847353488214, 0.3574588930351584, 0.3573965601603595, 0.3570618099326173, 0.35698315364404387, 0.35690247473866255, 0.3566418416125213, 0.3565442616714824, 0.35630060863757285, 0.3559957378787764, 0.35585164828958193, 0.3557780104135683, 0.35571044501345556, 0.3556508785248312, 0.35547108480946504, 0.35522708126421276, 0.355079667385279, 0.3548783270231999, 0.3548131553549371, 0.3546590600963549, 0.35450893789418864, 0.35447379832926956, 0.3544116430194971, 0.3542884178893665, 0.35418624900947543, 0.3541240930581463, 0.3540969378243408, 0.35403113688824733, 0.35394138688574484, 0.35383499545661656, 0.3537603374991812, 0.3534204296832315, 0.3533894104930372, 0.3533299230168828, 0.35329626039134393, 0.35317725701401737, 0.35298992696383347, 0.35290582716216073, 0.35270026018365525, 0.35267821231399876, 0.35237102174432466, 0.3521694852843254, 0.35214862003116965, 0.3521249672377021, 0.35201018711146487, 0.3520028627763785, 0.35194283177963764, 0.35191983831354195, 0.35188937440234386, 0.351842850884747, 0.351744161094537, 0.3516883449663729, 0.35163441295352466, 0.3514288533450735, 0.3513038056859011, 0.35127000216543436, 0.35121211184329776, 0.35111987348359586, 0.3510543839908693, 0.3510313688721591, 0.35095268783210076, 0.35093839623953405, 0.350775551682714, 0.3506743747204825, 0.3504999760517122, 0.35036744401774395, 0.35027467665804296, 0.3502562848745366, 0.3501574239531307, 0.3500941626187116, 0.3500748700810554, 0.35006302027877156, 0.35000636175180966, 0.34997843305770465, 0.349939771617697, 0.34993087682814383, 0.34988265224760406, 0.34984074832058537, 0.34984045211452075, 0.34980623244122266, 0.3497949889987804, 0.34972107132074054, 0.34967966381706067, 0.34962180424765854, 0.3495882273023131, 0.3495703825197812, 0.3494489711930656, 0.3494191837699908, 0.34940865851252695, 0.3493592517344929, 0.3493053586532692, 0.34925330857951664, 0.3492110434030475, 0.349157667063516, 0.34914147416270336, 0.34910370400052904, 0.3490703381356321, 0.34903247657976255, 0.3489698909219631, 0.3489584730426334, 0.34888667608545587, 0.34886535369832733, 0.3488518011484505, 0.3487688854303534, 0.3487349489893035]}}, \"_estimator_type\": \"classifier\"}"},"feature_names":[],"feature_types":[],"gradient_booster":{"model":{"gbtree_model_param":{"num_parallel_tree":"1","num_trees":"150","size_leaf_vector":"0"},"tree_info":[0,0,0,0,0,0,0,0,0,0,0,0,0,0,0,0,0,0,0,0,0,0,0,0,0,0,0,0,0,0,0,0,0,0,0,0,0,0,0,0,0,0,0,0,0,0,0,0,0,0,0,0,0,0,0,0,0,0,0,0,0,0,0,0,0,0,0,0,0,0,0,0,0,0,0,0,0,0,0,0,0,0,0,0,0,0,0,0,0,0,0,0,0,0,0,0,0,0,0,0,0,0,0,0,0,0,0,0,0,0,0,0,0,0,0,0,0,0,0,0,0,0,0,0,0,0,0,0,0,0,0,0,0,0,0,0,0,0,0,0,0,0,0,0,0,0,0,0,0,0],"trees":[{"base_weights":[4.5148848E-8,-1.0171245E0,8.103408E-1,-1.1945493E0,4.768715E-1,3.3461288E-1,1.2308332E0,-1.3091221E0,-4.8395732E-1,2.895874E-2,1.1598485E0,-4.043934E-1,9.5280933E-1,1.3230268E0,-4.1262755E-1,-1.4165444E0,-9.313581E-1,-7.437165E-1,1.5398467E-1,-2.7453685E-1,6.518779E-1,8.3418554E-1,1.3568645E0,-7.748559E-1,-2.6108926E-2,4.7937077E-1,1.2945712E0,1.0078651E0,1.5282922E0,1.5215153E-1,-6.8555605E-1,-2.2678947E-1,-1.8271099E-1,-1.610977E-1,-8.2732216E-2,-1.393231E-1,-1.0089122E-2,-1.0558057E-2,1.0891375E-1,-7.131767E-2,9.108916E-3,7.396632E-2,1.8453056E-1,9.152092E-2,1.625294E-1,2.0961966E-1,-2.6649235E-2,-1.708259E-1,-7.064695E-2,-7.1013376E-2,7.7302754E-2,-2.9885123E-2,1.6822927E-1,1.4111042E-1,2.2750305E-1,4.7697898E-2,2.1381404E-1,2.4004187E-1,6.1850134E-2,8.655143E-2,-3.158215E-2,-1.8834632E-2,-1.3498254E-1],"categories":[],"categories_nodes":[],"categories_segments":[],"categories_sizes":[],"default_left":[0,0,0,0,0,0,0,0,0,0,0,0,0,0,0,0,0,0,0,0,0,0,0,0,0,0,0,0,0,0,0,0,0,0,0,0,0,0,0,0,0,0,0,0,0,0,0,0,0,0,0,0,0,0,0,0,0,0,0,0,0,0,0],"id":0,"left_children":[1,3,5,7,9,11,13,15,17,19,21,23,25,27,29,31,33,35,37,39,41,43,45,47,49,51,53,55,57,59,61,-1,-1,-1,-1,-1,-1,-1,-1,-1,-1,-1,-1,-1,-1,-1,-1,-1,-1,-1,-1,-1,-1,-1,-1,-1,-1,-1,-1,-1,-1,-1,-1],"loss_changes":[1.3327065E6,1.9005375E5,1.8002525E5,5.2176E4,2.3283203E4,1.9290253E5,7.238106E4,2.2394688E4,1.4746146E4,8.690252E3,1.9330039E3,2.6953066E4,3.720028E4,2.9260625E4,3.9115713E3,8.1328125E3,6.618797E3,7.9181914E3,3.3054321E3,2.0819866E3,1.3821104E3,6.342573E2,1.1703125E3,1.0746957E4,2.3048525E4,4.200429E4,1.0492656E4,5.1393734E4,2.2004812E4,1.2742168E3,2.0532344E3,0E0,0E0,0E0,0E0,0E0,0E0,0E0,0E0,0E0,0E0,0E0,0E0,0E0,0E0,0E0,0E0,0E0,0E0,0E0,0E0,0E0,0E0,0E0,0E0,0E0,0E0,0E0,0E0,0E0,0E0,0E0,0E0],"parents":[2147483647,0,0,1,1,2,2,3,3,4,4,5,5,6,6,7,7,8,8,9,9,10,10,11,11,12,12,13,13,14,14,15,15,16,16,17,17,18,18,19,19,20,20,21,21,22,22,23,23,24,24,25,25,26,26,27,27,28,28,29,29,30,30],"right_children":[2,4,6,8,10,12,14,16,18,20,22,24,26,28,30,32,34,36,38,40,42,44,46,48,50,52,54,56,58,60,62,-1,-1,-1,-1,-1,-1,-1,-1,-1,-1,-1,-1,-1,-1,-1,-1,-1,-1,-1,-1,-1,-1,-1,-1,-1,-1,-1,-1,-1,-1,-1,-1],"split_conditions":[-4.0378094E-1,2.913634E-1,7.176442E-2,-1.1931172E-1,5.9873706E-1,2.3587567E-1,2.1661534E0,-7.337889E-2,-2.133645E-1,-3.80754E-1,7.7649677E-1,-2.8722587E-1,-6.668708E-1,4.867747E-1,8.7161696E-1,-5.2180415E-1,-4.065942E-1,2.4853154E-1,1.5468718E-1,4.4159868E-1,1.4606417E0,-4.7261563E-1,2.1661534E0,-5.94344E-1,-2.0965335E-1,1.5036658E0,6.805126E-1,-2.3156136E-1,2.1735504E0,5.727098E-1,7.5061554E-1,-2.2678947E-1,-1.8271099E-1,-1.610977E-1,-8.2732216E-2,-1.393231E-1,-1.0089122E-2,-1.0558057E-2,1.0891375E-1,-7.131767E-2,9.108916E-3,7.396632E-2,1.8453056E-1,9.152092E-2,1.625294E-1,2.0961966E-1,-2.6649235E-2,-1.708259E-1,-7.064695E-2,-7.1013376E-2,7.7302754E-2,-2.9885123E-2,1.6822927E-1,1.4111042E-1,2.2750305E-1,4.7697898E-2,2.1381404E-1,2.4004187E-1,6.1850134E-2,8.655143E-2,-3.158215E-2,-1.8834632E-2,-1.3498254E-1],"split_indices":[24,17,17,14,17,14,17,17,17,14,17,17,17,17,12,18,14,14,14,17,16,14,17,22,14,14,14,14,16,22,16,0,0,0,0,0,0,0,0,0,0,0,0,0,0,0,0,0,0,0,0,0,0,0,0,0,0,0,0,0,0,0,0],"split_type":[0,0,0,0,0,0,0,0,0,0,0,0,0,0,0,0,0,0,0,0,0,0,0,0,0,0,0,0,0,0,0,0,0,0,0,0,0,0,0,0,0,0,0,0,0,0,0,0,0,0,0,0,0,0,0,0,0,0,0,0,0,0,0],"sum_hessian":[1.6169334E6,7.169859E5,8.999475E5,6.408765E5,7.6109375E4,4.2224194E5,4.7770556E5,5.518912E5,8.898531E4,4.596528E4,3.0144096E4,1.9232844E5,2.299135E5,4.5233122E5,2.5374355E4,4.2969788E5,1.2219331E5,6.3236367E4,2.5748941E4,3.0907324E4,1.5057956E4,1.1364338E4,1.8779756E4,9.716829E4,9.516015E4,9.638916E4,1.3352434E5,1.7840952E5,2.739217E5,8.267212E3,1.7107145E4,2.9021428E5,1.3948361E5,8.883288E4,3.3360434E4,4.9649883E4,1.3586485E4,1.8495977E4,7.252966E3,1.932559E4,1.1581735E4,1.1815949E4,3.2420066E3,5.9876367E3,5.3767017E3,1.8295785E4,4.8397205E2,4.4210348E4,5.2957945E4,5.2110523E4,4.3049625E4,4.6864953E4,4.9524207E4,5.149576E4,8.202858E4,6.7270164E4,1.1113936E5,2.5732222E5,1.6599486E4,3.8070845E3,4.4601274E3,4.735606E3,1.2371538E4],"tree_param":{"num_deleted":"0","num_feature":"28","num_nodes":"63","size_leaf_vector":"0"}},{"base_weights":[6.2260566E-5,-8.527904E-1,7.1233386E-1,-1.0242784E0,3.3861563E-1,2.665824E-1,1.0490984E0,-1.1178929E0,-3.109758E-1,-7.8332685E-2,9.319569E-1,-3.49669E-1,8.480642E-1,1.1331141E0,-2.227985E-1,-1.2329407E0,-8.553354E-1,-5.935124E-1,1.544181E-1,-3.112496E-1,5.7414216E-1,6.253983E-1,1.154893E0,-5.1473725E-1,2.988735E-1,3.2818928E-1,1.100126E0,8.359211E-1,1.3256282E0,2.8879187E-1,-4.9946305E-1,-1.9632189E-1,-1.5391561E-1,-1.4600797E-1,-7.469259E-2,-1.09316595E-1,2.1891452E-2,-6.6183475E-3,9.9248916E-2,-6.035941E-2,5.4993413E-2,4.385989E-3,1.1151352E-1,6.0651287E-2,1.3644746E-1,1.7792246E-1,-2.4971647E-2,-1.1721362E-1,-2.2171885E-2,-6.096287E-2,9.147047E-2,-4.439438E-2,1.533432E-1,6.843893E-2,1.8232895E-1,3.8105145E-2,1.8931955E-1,2.064959E-1,5.165237E-2,9.576288E-2,-1.1464672E-3,-1.3855561E-3,-1.16348654E-1],"categories":[],"categories_nodes":[],"categories_segments":[],"categories_sizes":[],"default_left":[0,0,0,0,0,0,0,0,0,0,0,0,0,0,0,0,0,0,0,0,0,0,0,0,0,0,0,0,0,0,0,0,0,0,0,0,0,0,0,0,0,0,0,0,0,0,0,0,0,0,0,0,0,0,0,0,0,0,0,0,0,0,0],"id":1,"left_children":[1,3,5,7,9,11,13,15,17,19,21,23,25,27,29,31,33,35,37,39,41,43,45,47,49,51,53,55,57,59,61,-1,-1,-1,-1,-1,-1,-1,-1,-1,-1,-1,-1,-1,-1,-1,-1,-1,-1,-1,-1,-1,-1,-1,-1,-1,-1,-1,-1,-1,-1,-1,-1],"loss_changes":[9.7414775E5,1.491065E5,1.3117422E5,4.2600312E4,2.2717754E4,1.3475966E5,5.319175E4,1.7034188E4,9.732431E3,8.196295E3,2.589332E3,1.9545557E4,2.5354969E4,2.6713688E4,4.365771E3,6.1523125E3,7.2488594E3,4.606702E3,2.8158896E3,2.4557961E3,1.3086992E3,1.002395E3,9.063672E2,1.4241004E4,8.1234717E3,2.7372533E4,9.681828E3,4.5524016E4,1.4183781E4,1.122069E3,2.7104712E3,0E0,0E0,0E0,0E0,0E0,0E0,0E0,0E0,0E0,0E0,0E0,0E0,0E0,0E0,0E0,0E0,0E0,0E0,0E0,0E0,0E0,0E0,0E0,0E0,0E0,0E0,0E0,0E0,0E0,0E0,0E0,0E0],"parents":[2147483647,0,0,1,1,2,2,3,3,4,4,5,5,6,6,7,7,8,8,9,9,10,10,11,11,12,12,13,13,14,14,15,15,16,16,17,17,18,18,19,19,20,20,21,21,22,22,23,23,24,24,25,25,26,26,27,27,28,28,29,29,30,30],"right_children":[2,4,6,8,10,12,14,16,18,20,22,24,26,28,30,32,34,36,38,40,42,44,46,48,50,52,54,56,58,60,62,-1,-1,-1,-1,-1,-1,-1,-1,-1,-1,-1,-1,-1,-1,-1,-1,-1,-1,-1,-1,-1,-1,-1,-1,-1,-1,-1,-1,-1,-1,-1,-1],"split_conditions":[-3.8917306E-1,2.541125E-1,-6.7032045E-3,-6.412863E-2,5.445645E-1,3.6127684E-1,1.9058299E0,-1.7608654E-1,-3.057041E-1,-3.2160565E-1,7.4176526E-1,4.1748843E-1,-8.518892E-1,4.2855123E-1,8.7161696E-1,-4.8587593E-1,-3.628112E-1,3.9326313E-1,2.1162163E-1,4.616216E-1,-1.4043692E0,-4.4386756E-1,2.1752374E0,-9.9055864E-2,-1.1887153E0,2.0015364E0,2.4078646E-1,-1.3817967E-1,2.3034031E0,5.454585E-1,1.1551988E0,-1.9632189E-1,-1.5391561E-1,-1.4600797E-1,-7.469259E-2,-1.09316595E-1,2.1891452E-2,-6.6183475E-3,9.9248916E-2,-6.035941E-2,5.4993413E-2,4.385989E-3,1.1151352E-1,6.0651287E-2,1.3644746E-1,1.7792246E-1,-2.4971647E-2,-1.1721362E-1,-2.2171885E-2,-6.096287E-2,9.147047E-2,-4.439438E-2,1.533432E-1,6.843893E-2,1.8232895E-1,3.8105145E-2,1.8931955E-1,2.064959E-1,5.165237E-2,9.576288E-2,-1.1464672E-3,-1.3855561E-3,-1.16348654E-1],"split_indices":[24,17,17,14,17,14,17,17,17,14,17,20,17,17,12,18,14,14,14,0,26,14,17,14,22,14,26,14,16,22,16,0,0,0,0,0,0,0,0,0,0,0,0,0,0,0,0,0,0,0,0,0,0,0,0,0,0,0,0,0,0,0,0],"split_type":[0,0,0,0,0,0,0,0,0,0,0,0,0,0,0,0,0,0,0,0,0,0,0,0,0,0,0,0,0,0,0,0,0,0,0,0,0,0,0,0,0,0,0,0,0,0,0,0,0,0,0,0,0,0,0,0,0,0,0,0,0,0,0],"sum_hessian":[1.6036316E6,7.297958E5,8.738359E5,6.379684E5,9.182744E4,3.7606578E5,4.9777006E5,5.6395406E5,7.4014336E4,5.3930598E4,3.789684E4,1.8257458E5,1.9349122E5,4.6692706E5,3.0843E4,3.9212738E5,1.7182666E5,4.6054664E4,2.795967E4,3.974365E4,1.4186949E4,1.595752E4,2.1939318E4,1.4553336E5,3.7041215E4,6.318178E4,1.3030944E5,1.8356084E5,2.8336622E5,1.0825372E4,2.0017629E4,2.868864E5,1.05240984E5,1.2916068E5,4.266598E4,3.8932883E4,7.1217817E3,2.0095111E4,7.8645576E3,3.503347E4,4.710179E3,3.3629773E3,1.0823972E4,8.977967E3,6.9795522E3,2.1432443E4,5.068759E2,8.4277766E4,6.125559E4,1.1333264E4,2.5707951E4,3.3267418E4,2.9914363E4,1.9806379E4,1.10503055E5,7.760767E4,1.0595317E5,2.6936316E5,1.4003057E4,4.966514E3,5.8588584E3,7.2141147E3,1.2803514E4],"tree_param":{"num_deleted":"0","num_feature":"28","num_nodes":"63","size_leaf_vector":"0"}},{"base_weights":[2.2701762E-4,-7.846537E-1,5.8600014E-1,-9.332149E-1,1.752465E-1,2.5984418E-1,9.511141E-1,-1.0355549E0,-4.9938023E-1,-1.6263105E-1,7.369178E-1,-3.3464244E-1,6.8451846E-1,1.0398773E0,-2.0107041E-1,-1.137038E0,-8.72756E-1,-6.2954366E-1,5.1836194E-3,-4.3984342E-1,2.7732587E-1,4.341205E-1,9.708659E-1,-6.460051E-1,-3.705769E-2,3.332689E-1,1.0202198E0,4.6632358E-1,1.143415E0,8.123852E-2,-5.683047E-1,-1.8462744E-1,-1.5392989E-1,-1.482578E-1,-9.808572E-2,-1.144307E-1,-2.0475816E-2,-6.9723085E-2,2.9624838E-2,-8.886051E-2,-1.4664062E-2,1.986712E-2,1.3657454E-1,2.7485818E-2,9.9262945E-2,1.4952733E-1,-2.4927516E-2,-1.4135435E-1,-5.2741002E-2,-5.744699E-2,4.353976E-2,-4.1177247E-2,1.2002869E-1,6.8140335E-2,1.7120135E-1,2.0696558E-2,1.5807143E-1,1.7983696E-1,5.3980153E-2,9.3477346E-2,-1.141073E-2,-1.1330908E-1,-1.6474009E-2],"categories":[],"categories_nodes":[],"categories_segments":[],"categories_sizes":[],"default_left":[0,0,0,0,0,0,0,0,0,0,0,0,0,0,0,0,0,0,0,0,0,0,0,0,0,0,0,0,0,0,0,0,0,0,0,0,0,0,0,0,0,0,0,0,0,0,0,0,0,0,0,0,0,0,0,0,0,0,0,0,0,0,0],"id":2,"left_children":[1,3,5,7,9,11,13,15,17,19,21,23,25,27,29,31,33,35,37,39,41,43,45,47,49,51,53,55,57,59,61,-1,-1,-1,-1,-1,-1,-1,-1,-1,-1,-1,-1,-1,-1,-1,-1,-1,-1,-1,-1,-1,-1,-1,-1,-1,-1,-1,-1,-1,-1,-1,-1],"loss_changes":[7.231342E5,9.585606E4,1.0725422E5,2.5843625E4,1.7097037E4,1.2009988E5,4.3460625E4,7.780375E3,7.2970117E3,6.860732E3,2.396668E3,1.8366865E4,3.2719586E4,2.3429844E4,3.1514067E3,3.0154688E3,4.576172E3,5.805789E3,2.0596584E3,1.8009067E3,1.9945345E3,8.422832E2,5.641211E2,8.451293E3,1.1476477E4,3.8483273E4,9.725531E3,1.1638455E4,1.453325E4,1.4652517E3,1.1331465E3,0E0,0E0,0E0,0E0,0E0,0E0,0E0,0E0,0E0,0E0,0E0,0E0,0E0,0E0,0E0,0E0,0E0,0E0,0E0,0E0,0E0,0E0,0E0,0E0,0E0,0E0,0E0,0E0,0E0,0E0,0E0,0E0],"parents":[2147483647,0,0,1,1,2,2,3,3,4,4,5,5,6,6,7,7,8,8,9,9,10,10,11,11,12,12,13,13,14,14,15,15,16,16,17,17,18,18,19,19,20,20,21,21,22,22,23,23,24,24,25,25,26,26,27,27,28,28,29,29,30,30],"right_children":[2,4,6,8,10,12,14,16,18,20,22,24,26,28,30,32,34,36,38,40,42,44,46,48,50,52,54,56,58,60,62,-1,-1,-1,-1,-1,-1,-1,-1,-1,-1,-1,-1,-1,-1,-1,-1,-1,-1,-1,-1,-1,-1,-1,-1,-1,-1,-1,-1,-1,-1,-1,-1],"split_conditions":[-4.2204443E-1,1.9995184E-1,1.7548159E-1,-2.0261505E-1,5.137494E-1,8.493178E-2,1.9191248E0,-2.7523822E-1,-1.4500824E-1,-4.3887797E-1,7.2013915E-1,-2.2601187E-1,-5.012614E-1,-3.032869E-1,1.6825947E0,-5.805016E-1,-5.41569E-1,1.6635159E-1,-1.3657993E0,-5.3864664E-1,7.665872E-1,-5.154073E-1,2.1968877E0,-3.8142487E-1,-3.298996E-1,1.0351052E0,2.0855593E-2,6.1733276E-1,1.9783254E0,2.1968877E0,3.1182852E0,-1.8462744E-1,-1.5392989E-1,-1.482578E-1,-9.808572E-2,-1.144307E-1,-2.0475816E-2,-6.9723085E-2,2.9624838E-2,-8.886051E-2,-1.4664062E-2,1.986712E-2,1.3657454E-1,2.7485818E-2,9.9262945E-2,1.4952733E-1,-2.4927516E-2,-1.4135435E-1,-5.2741002E-2,-5.744699E-2,4.353976E-2,-4.1177247E-2,1.2002869E-1,6.8140335E-2,1.7120135E-1,2.0696558E-2,1.5807143E-1,1.7983696E-1,5.3980153E-2,9.3477346E-2,-1.141073E-2,-1.1330908E-1,-1.6474009E-2],"split_indices":[24,17,17,14,17,14,17,17,17,14,17,17,17,24,12,18,18,14,26,18,25,14,17,22,14,14,26,17,16,17,24,0,0,0,0,0,0,0,0,0,0,0,0,0,0,0,0,0,0,0,0,0,0,0,0,0,0,0,0,0,0,0,0],"split_type":[0,0,0,0,0,0,0,0,0,0,0,0,0,0,0,0,0,0,0,0,0,0,0,0,0,0,0,0,0,0,0,0,0,0,0,0,0,0,0,0,0,0,0,0,0,0,0,0,0,0,0,0,0,0,0,0,0,0,0,0,0,0,0],"sum_hessian":[1.5728425E6,6.721819E5,9.006606E5,5.8209294E5,9.0088914E4,4.757106E5,4.2495006E5,4.7098744E5,1.1110551E5,5.625126E4,3.3837656E4,1.9822397E5,2.774866E5,3.945541E5,3.0395963E4,2.9012662E5,1.808608E5,8.8320914E4,2.2784592E4,3.4508074E4,2.1743186E4,1.4749867E4,1.908779E4,9.686893E4,1.0135505E5,1.3560402E5,1.418826E5,6.0334207E4,3.342199E5,1.7185502E4,1.3210462E4,1.5712716E5,1.3299947E5,1.1833523E5,6.2525566E4,6.952058E4,1.880034E4,6.6154673E3,1.6169124E4,2.3864436E4,1.0643642E4,1.7695432E4,4.0477534E3,7.017471E3,7.732396E3,1.8661477E4,4.263125E2,4.8272777E4,4.8596152E4,4.927739E4,5.2077656E4,5.891539E4,7.668863E4,2.5012965E4,1.16869625E5,3.8703832E4,2.1630379E4,3.121127E5,2.2107223E4,3.8655295E3,1.3319972E4,9.381533E3,3.828929E3],"tree_param":{"num_deleted":"0","num_feature":"28","num_nodes":"63","size_leaf_vector":"0"}},{"base_weights":[3.475838E-4,-6.312062E-1,5.6074977E-1,-7.533286E-1,4.221135E-1,1.8077603E-1,8.1371844E-1,-8.608853E-1,-2.902042E-1,1.4941594E-1,8.413612E-1,-2.7439615E-1,6.959229E-1,8.782199E-1,-1.8762034E-1,-9.4964E-1,-5.430731E-1,-5.186303E-1,9.091542E-2,-1.095634E-1,4.8179123E-1,6.6774166E-1,9.8005277E-1,-4.627454E-1,2.1839915E-1,1.2655962E-1,9.009538E-1,6.8012613E-1,1.0936085E0,2.0248127E-1,-3.942588E-1,-1.5737315E-1,-1.23407066E-1,-8.94436E-2,1.3381258E-2,-9.290832E-2,1.3325327E-2,-1.7515885E-2,6.868005E-2,-4.5884605E-2,2.3541981E-2,9.684229E-3,9.595861E-2,1.13206685E-1,3.3871975E-2,1.5257047E-1,-2.8730197E-2,-1.1978648E-1,-3.626193E-2,-2.4667041E-2,7.125605E-2,-6.20297E-2,1.3574985E-1,1.4380623E-2,1.4715563E-1,1.6414806E-2,1.4355499E-1,1.7443088E-1,4.614794E-2,7.0689835E-2,-1.3304554E-2,1.6574543E-2,-8.67645E-2],"categories":[],"categories_nodes":[],"categories_segments":[],"categories_sizes":[],"default_left":[0,0,0,0,0,0,0,0,0,0,0,0,0,0,0,0,0,0,0,0,0,0,0,0,0,0,0,0,0,0,0,0,0,0,0,0,0,0,0,0,0,0,0,0,0,0,0,0,0,0,0,0,0,0,0,0,0,0,0,0,0,0,0],"id":3,"left_children":[1,3,5,7,9,11,13,15,17,19,21,23,25,27,29,31,33,35,37,39,41,43,45,47,49,51,53,55,57,59,61,-1,-1,-1,-1,-1,-1,-1,-1,-1,-1,-1,-1,-1,-1,-1,-1,-1,-1,-1,-1,-1,-1,-1,-1,-1,-1,-1,-1,-1,-1,-1,-1],"loss_changes":[5.426003E5,9.27185E4,7.807995E4,3.2173719E4,8.561562E3,7.612584E4,3.1496531E4,1.4784906E4,1.0598078E4,3.9058687E3,7.1000586E2,1.5998371E4,1.777839E4,1.9546781E4,2.379043E3,5.1745625E3,3.8504414E3,4.6588926E3,3.4769023E3,1.3345566E3,1.3094023E3,5.0367773E2,7.1292676E2,9.254939E3,4.6830747E3,1.695342E4,7.21925E3,3.771422E4,1.1948156E4,7.99905E2,1.7935664E3,0E0,0E0,0E0,0E0,0E0,0E0,0E0,0E0,0E0,0E0,0E0,0E0,0E0,0E0,0E0,0E0,0E0,0E0,0E0,0E0,0E0,0E0,0E0,0E0,0E0,0E0,0E0,0E0,0E0,0E0,0E0,0E0],"parents":[2147483647,0,0,1,1,2,2,3,3,4,4,5,5,6,6,7,7,8,8,9,9,10,10,11,11,12,12,13,13,14,14,15,15,16,16,17,17,18,18,19,19,20,20,21,21,22,22,23,23,24,24,25,25,26,26,27,27,28,28,29,29,30,30],"right_children":[2,4,6,8,10,12,14,16,18,20,22,24,26,28,30,32,34,36,38,40,42,44,46,48,50,52,54,56,58,60,62,-1,-1,-1,-1,-1,-1,-1,-1,-1,-1,-1,-1,-1,-1,-1,-1,-1,-1,-1,-1,-1,-1,-1,-1,-1,-1,-1,-1,-1,-1,-1,-1],"split_conditions":[-3.6895484E-1,3.4631884E-1,-8.188851E-2,-1.7168605E-1,6.5215826E-1,5.4110104E-1,1.9390427E0,-2.9710617E-2,-2.6284993E-1,-4.5801032E-1,8.685829E-1,1.0615878E0,-1.0087523E0,5.4353327E-1,8.7161696E-1,-5.6596035E-1,3.7844214E-1,3.3166963E-1,6.798038E-2,-5.714255E-1,-1.3995972E0,1.3444449E0,2.2320375E0,-8.166342E-1,6.961642E-1,2.6871283E0,-5.267403E-2,-2.6995826E-1,8.864745E-1,6.174921E-1,5.6920516E-1,-1.5737315E-1,-1.23407066E-1,-8.94436E-2,1.3381258E-2,-9.290832E-2,1.3325327E-2,-1.7515885E-2,6.868005E-2,-4.5884605E-2,2.3541981E-2,9.684229E-3,9.595861E-2,1.13206685E-1,3.3871975E-2,1.5257047E-1,-2.8730197E-2,-1.1978648E-1,-3.626193E-2,-2.4667041E-2,7.125605E-2,-6.20297E-2,1.3574985E-1,1.4380623E-2,1.4715563E-1,1.6414806E-2,1.4355499E-1,1.7443088E-1,4.614794E-2,7.0689835E-2,-1.3304554E-2,1.6574543E-2,-8.67645E-2],"split_indices":[24,17,17,14,17,14,17,17,17,14,17,19,17,17,12,18,0,14,14,18,26,22,17,22,26,14,26,14,14,22,16,0,0,0,0,0,0,0,0,0,0,0,0,0,0,0,0,0,0,0,0,0,0,0,0,0,0,0,0,0,0,0,0],"split_type":[0,0,0,0,0,0,0,0,0,0,0,0,0,0,0,0,0,0,0,0,0,0,0,0,0,0,0,0,0,0,0,0,0,0,0,0,0,0,0,0,0,0,0,0,0,0,0,0,0,0,0,0,0,0,0,0,0,0,0,0,0,0,0],"sum_hessian":[1.5330959E6,7.2079025E5,8.123057E5,6.459041E5,7.488616E4,3.246556E5,4.8765006E5,5.2416934E5,1.2173474E5,4.5374133E4,2.951202E4,1.723614E5,1.522942E5,4.5813903E5,2.9511012E4,4.097402E5,1.1442916E5,7.611465E4,4.5620094E4,2.5503246E4,1.9870887E4,1.310832E4,1.64037E4,1.2470029E5,4.7661117E4,4.0322297E4,1.119719E5,2.3865306E5,2.1948598E5,1.0219047E4,1.9291967E4,2.2966669E5,1.8007352E5,1.0554571E5,8.883448E3,6.528586E4,1.0828787E4,2.9132375E4,1.6487719E4,1.4684928E4,1.0818318E4,5.4566973E3,1.4414188E4,1.0952257E4,2.1560637E3,1.5900539E4,5.0316034E2,4.9491004E4,7.520929E4,1.9127664E4,2.8533455E4,2.3805922E4,1.6516377E4,1.0130625E4,1.0184127E5,7.796722E4,1.6068584E5,2.0170947E5,1.7776514E4,5.3135415E3,4.905505E3,5.157438E3,1.4134528E4],"tree_param":{"num_deleted":"0","num_feature":"28","num_nodes":"63","size_leaf_vector":"0"}},{"base_weights":[5.667356E-4,-6.323827E-1,4.348254E-1,-7.583889E-1,4.523649E-2,1.9909856E-1,7.777928E-1,-8.562397E-1,-4.7895485E-1,-1.4698006E-1,6.052325E-1,-2.654227E-1,5.388619E-1,8.609685E-1,-1.733664E-1,-9.6113706E-1,-7.546892E-1,-5.783736E-1,-1.08700216E-1,-2.913537E-1,4.1435018E-1,4.062025E-1,8.1986284E-1,-4.0500838E-1,2.373104E-1,2.3517689E-1,8.422497E-1,4.3920758E-1,9.627486E-1,1.5284416E-1,-3.4867185E-1,-1.4744963E-1,-8.562241E-2,-1.2959498E-1,-9.259315E-2,-1.0727977E-1,-5.363519E-2,-4.9714323E-2,2.2454754E-2,-5.6438725E-2,3.906846E-2,4.125438E-2,1.4478117E-1,1.2761324E-2,7.920136E-2,1.2773268E-1,-3.1149738E-2,-1.1177787E-1,-3.2063033E-2,-4.7310784E-2,6.950522E-2,-2.6081232E-2,1.0260641E-1,4.6846155E-2,1.435831E-1,2.7985202E-2,1.342223E-1,1.5474498E-1,3.3290077E-2,7.063291E-2,-6.0359524E-3,-1.8294196E-3,-8.309065E-2],"categories":[],"categories_nodes":[],"categories_segments":[],"categories_sizes":[],"default_left":[0,0,0,0,0,0,0,0,0,0,0,0,0,0,0,0,0,0,0,0,0,0,0,0,0,0,0,0,0,0,0,0,0,0,0,0,0,0,0,0,0,0,0,0,0,0,0,0,0,0,0,0,0,0,0,0,0,0,0,0,0,0,0],"id":4,"left_children":[1,3,5,7,9,11,13,15,17,19,21,23,25,27,29,31,33,35,37,39,41,43,45,47,49,51,53,55,57,59,61,-1,-1,-1,-1,-1,-1,-1,-1,-1,-1,-1,-1,-1,-1,-1,-1,-1,-1,-1,-1,-1,-1,-1,-1,-1,-1,-1,-1,-1,-1,-1,-1],"loss_changes":[4.0928053E5,5.1734562E4,7.139775E4,1.3969031E4,1.0226455E4,8.2605914E4,2.8459969E4,4.0300625E3,4.877539E3,5.7320566E3,1.0367383E3,1.5515914E4,2.785114E4,1.4200125E4,1.6543906E3,1.5875625E3,2.8863516E3,3.1555938E3,1.6143893E3,2.6359165E3,1.11026E3,4.9274585E2,3.8048047E2,1.12589E4,6.0037695E3,2.7738477E4,9.213156E3,7.4025684E3,1.35991875E4,6.21033E2,1.2996277E3,0E0,0E0,0E0,0E0,0E0,0E0,0E0,0E0,0E0,0E0,0E0,0E0,0E0,0E0,0E0,0E0,0E0,0E0,0E0,0E0,0E0,0E0,0E0,0E0,0E0,0E0,0E0,0E0,0E0,0E0,0E0,0E0],"parents":[2147483647,0,0,1,1,2,2,3,3,4,4,5,5,6,6,7,7,8,8,9,9,10,10,11,11,12,12,13,13,14,14,15,15,16,16,17,17,18,18,19,19,20,20,21,21,22,22,23,23,24,24,25,25,26,26,27,27,28,28,29,29,30,30],"right_children":[2,4,6,8,10,12,14,16,18,20,22,24,26,28,30,32,34,36,38,40,42,44,46,48,50,52,54,56,58,60,62,-1,-1,-1,-1,-1,-1,-1,-1,-1,-1,-1,-1,-1,-1,-1,-1,-1,-1,-1,-1,-1,-1,-1,-1,-1,-1,-1,-1,-1,-1,-1,-1],"split_conditions":[-4.4211343E-1,1.3688387E-1,2.7583227E-1,-2.833079E-1,5.714961E-1,2.624609E-2,1.9612839E0,-6.021822E-1,8.843446E-2,-2.733287E-1,8.3979076E-1,2.9150805E-1,-4.3726096E-1,-2.814945E-1,8.7161696E-1,1.4032885E-1,-3.4931466E-1,-3.246124E-1,-4.436584E-1,6.7691064E-1,1.6971139E0,-6.302842E-1,2.268381E0,-2.714568E-1,-9.5230037E-1,1.1672473E0,-1.6630134E-1,6.708001E-1,1.8346559E0,4.5402437E-1,1.2714195E0,-1.4744963E-1,-8.562241E-2,-1.2959498E-1,-9.259315E-2,-1.0727977E-1,-5.363519E-2,-4.9714323E-2,2.2454754E-2,-5.6438725E-2,3.906846E-2,4.125438E-2,1.4478117E-1,1.2761324E-2,7.920136E-2,1.2773268E-1,-3.1149738E-2,-1.1177787E-1,-3.2063033E-2,-4.7310784E-2,6.950522E-2,-2.6081232E-2,1.0260641E-1,4.6846155E-2,1.435831E-1,2.7985202E-2,1.342223E-1,1.5474498E-1,3.3290077E-2,7.063291E-2,-6.0359524E-3,-1.8294196E-3,-8.309065E-2],"split_indices":[24,17,17,14,17,14,17,18,14,14,17,20,17,24,12,0,17,17,17,25,16,24,17,22,22,14,26,17,16,22,16,0,0,0,0,0,0,0,0,0,0,0,0,0,0,0,0,0,0,0,0,0,0,0,0,0,0,0,0,0,0,0,0],"split_type":[0,0,0,0,0,0,0,0,0,0,0,0,0,0,0,0,0,0,0,0,0,0,0,0,0,0,0,0,0,0,0,0,0,0,0,0,0,0,0,0,0,0,0,0,0,0,0,0,0,0,0,0,0,0,0,0,0,0,0,0,0,0,0],"sum_hessian":[1.4890285E6,6.059018E5,8.831267E5,5.10898E5,9.500381E4,5.233925E5,3.597342E5,3.7839244E5,1.3250556E5,7.072757E4,2.4276238E4,2.2110289E5,3.0228962E5,3.3080638E5,2.8927816E4,1.8612478E5,1.9226766E5,1.0445682E5,2.8048744E4,5.6258434E4,1.4469139E4,1.2597385E4,1.16788545E4,1.7305402E5,4.8048887E4,1.510717E5,1.512179E5,6.4312152E4,2.6649422E5,1.0111794E4,1.8816023E4,1.7625205E5,9.872735E3,1.0709129E5,8.517637E4,6.44916E4,3.9965223E4,1.5063965E4,1.2984779E4,4.8756773E4,7.5016616E3,1.15495625E4,2.9195762E3,3.4647434E3,9.132641E3,1.1329628E4,3.4922714E2,6.227861E4,1.107754E5,1.3947232E4,3.4101652E4,7.904162E4,7.2030086E4,2.6958834E4,1.2425908E5,4.137221E4,2.2939941E4,2.438221E5,2.267214E4,3.8193074E3,6.292487E3,7.12979E3,1.1686233E4],"tree_param":{"num_deleted":"0","num_feature":"28","num_nodes":"63","size_leaf_vector":"0"}},{"base_weights":[7.4360025E-4,-4.769379E-1,4.5039296E-1,-6.1868525E-1,1.1924207E-1,1.19425185E-1,6.535894E-1,-7.3380977E-1,-3.0032608E-1,-1.0811772E-1,5.368828E-1,-2.2314389E-1,5.8867353E-1,7.061598E-1,-1.6433808E-1,-8.322974E-1,-5.9841454E-1,-4.1491285E-1,4.4393584E-2,-2.7046108E-1,3.603653E-1,3.6751866E-1,7.6307917E-1,-6.601713E-1,-3.9884917E-2,-3.0070184E-2,7.7620214E-1,5.571547E-1,9.89775E-1,2.2731371E-2,-4.001849E-1,-1.3746354E-1,-1.1008777E-1,-1.02231465E-1,-5.4764368E-2,-8.9005485E-2,-3.171809E-2,-2.8902715E-2,4.7889605E-2,-7.358301E-2,-1.6191432E-2,-1.3346418E-2,7.884456E-2,3.424979E-2,1.002039E-1,1.1814634E-1,-3.4977037E-2,-1.188631E-1,-8.283317E-3,-6.5275304E-2,3.9678775E-2,-8.1041686E-2,1.1624089E-1,2.7160667E-2,1.3299903E-1,5.1083762E-2,1.2675308E-1,1.584705E-1,2.0429641E-2,5.8758374E-2,-1.2092552E-2,-8.971593E-2,-2.8610446E-3],"categories":[],"categories_nodes":[],"categories_segments":[],"categories_sizes":[],"default_left":[0,0,0,0,0,0,0,0,0,0,0,0,0,0,0,0,0,0,0,0,0,0,0,0,0,0,0,0,0,0,0,0,0,0,0,0,0,0,0,0,0,0,0,0,0,0,0,0,0,0,0,0,0,0,0,0,0,0,0,0,0,0,0],"id":5,"left_children":[1,3,5,7,9,11,13,15,17,19,21,23,25,27,29,31,33,35,37,39,41,43,45,47,49,51,53,55,57,59,61,-1,-1,-1,-1,-1,-1,-1,-1,-1,-1,-1,-1,-1,-1,-1,-1,-1,-1,-1,-1,-1,-1,-1,-1,-1,-1,-1,-1,-1,-1,-1,-1],"loss_changes":[3.1011288E5,5.9161547E4,5.001639E4,2.0729625E4,1.2769363E4,4.5478547E4,1.9814344E4,5.5386094E3,5.9335244E3,6.62266E3,1.815707E3,1.3097059E4,1.3852383E4,1.8297266E4,1.2278445E3,1.9894688E3,3.392457E3,4.0932852E3,2.4422156E3,2.3130366E3,1.6641809E3,1.1337148E3,4.9683203E2,3.8652773E3,1.3864135E4,1.1405388E4,6.0224453E3,1.769821E4,8.489625E3,5.919051E2,9.285316E2,0E0,0E0,0E0,0E0,0E0,0E0,0E0,0E0,0E0,0E0,0E0,0E0,0E0,0E0,0E0,0E0,0E0,0E0,0E0,0E0,0E0,0E0,0E0,0E0,0E0,0E0,0E0,0E0,0E0,0E0,0E0,0E0],"parents":[2147483647,0,0,1,1,2,2,3,3,4,4,5,5,6,6,7,7,8,8,9,9,10,10,11,11,12,12,13,13,14,14,15,15,16,16,17,17,18,18,19,19,20,20,21,21,22,22,23,23,24,24,25,25,26,26,27,27,28,28,29,29,30,30],"right_children":[2,4,6,8,10,12,14,16,18,20,22,24,26,28,30,32,34,36,38,40,42,44,46,48,50,52,54,56,58,60,62,-1,-1,-1,-1,-1,-1,-1,-1,-1,-1,-1,-1,-1,-1,-1,-1,-1,-1,-1,-1,-1,-1,-1,-1,-1,-1,-1,-1,-1,-1,-1,-1],"split_conditions":[-3.4917682E-1,1.6343981E-1,-1.4112003E-1,-2.4520844E-1,5.1017475E-1,7.330192E-1,1.985794E0,-3.0034828E-1,1.2868178E-1,-3.0039153E-1,7.924071E-1,-1.1258171E0,-1.1177466E0,3.7126777E-1,1.6825947E0,7.4167407E-1,-4.8792356E-1,-3.5592538E-1,-4.1246232E-1,-1.3505731E0,-1.3903753E0,-3.473137E-1,2.307992E0,7.3712355E-1,-1.3692401E-1,3.110353E0,3.628733E-1,5.738453E-1,2.0166597E0,2.307992E0,2.9060538E0,-1.3746354E-1,-1.1008777E-1,-1.02231465E-1,-5.4764368E-2,-8.9005485E-2,-3.171809E-2,-2.8902715E-2,4.7889605E-2,-7.358301E-2,-1.6191432E-2,-1.3346418E-2,7.884456E-2,3.424979E-2,1.002039E-1,1.1814634E-1,-3.4977037E-2,-1.188631E-1,-8.283317E-3,-6.5275304E-2,3.9678775E-2,-8.1041686E-2,1.1624089E-1,2.7160667E-2,1.3299903E-1,5.1083762E-2,1.2675308E-1,1.584705E-1,2.0429641E-2,5.8758374E-2,-1.2092552E-2,-8.971593E-2,-2.8610446E-3],"split_indices":[24,17,17,14,17,14,17,17,14,14,17,22,17,20,12,26,18,17,17,26,26,14,17,20,14,14,26,17,16,17,24,0,0,0,0,0,0,0,0,0,0,0,0,0,0,0,0,0,0,0,0,0,0,0,0,0,0,0,0,0,0,0,0],"split_type":[0,0,0,0,0,0,0,0,0,0,0,0,0,0,0,0,0,0,0,0,0,0,0,0,0,0,0,0,0,0,0,0,0,0,0,0,0,0,0,0,0,0,0,0,0,0,0,0,0,0,0,0,0,0,0,0,0,0,0,0,0,0,0],"sum_hessian":[1.4437994E6,7.000775E5,7.4372194E5,5.656006E5,1.3447684E5,2.82913E5,4.6080894E5,4.153875E5,1.5021312E5,8.7074836E4,4.7402004E4,1.6353023E5,1.1938276E5,4.329803E5,2.7828621E4,2.4046566E5,1.7492184E5,1.1273813E5,3.7474996E4,6.4666418E4,2.2408424E4,2.7107746E4,2.0294258E4,4.831302E4,1.1521722E5,2.7767096E4,9.161566E4,2.8385322E5,1.4912708E5,1.5519631E4,1.230899E4,1.2961798E5,1.1084769E5,1.2896967E5,4.5952164E4,6.005821E4,5.267992E4,2.0120863E4,1.7354135E4,2.7466947E4,3.719947E4,6.0256543E3,1.6382769E4,1.8527895E4,8.579852E3,1.9806143E4,4.88117E2,3.9645676E4,8.667344E3,5.0126426E4,6.5090793E4,1.6995701E4,1.0771394E4,1.4342596E4,7.727306E4,1.6197898E5,1.2187425E5,1.3831917E5,1.0807903E4,3.3951013E3,1.2124529E4,8.1012334E3,4.2077563E3],"tree_param":{"num_deleted":"0","num_feature":"28","num_nodes":"63","size_leaf_vector":"0"}},{"base_weights":[8.5903937E-4,-5.112738E-1,3.2859123E-1,-6.236051E-1,-3.0614229E-2,1.8770146E-1,7.6689667E-1,-6.946895E-1,-3.3497444E-1,-1.8711443E-1,3.6350328E-1,-2.9169573E-2,5.915179E-1,8.215562E-1,-1.3855222E-1,-7.1252596E-1,-2.3035226E-2,-3.6735165E-1,4.3894047E-1,-4.263918E-1,5.7563838E-2,2.3238567E-1,6.617101E-1,-3.0735227E-1,2.199622E-1,6.6676104E-1,-2.1022166E-1,6.8827456E-1,1.0541011E0,3.5992196E-1,-4.3192288E-1,-1.1142603E-1,-6.440925E-2,-3.0684995E-2,7.044469E-2,-8.088284E-2,-3.731831E-2,-2.8170863E-2,8.3611354E-2,-8.800687E-2,-3.562019E-2,-7.1992567E-3,1.06537156E-1,2.1801585E-2,9.885682E-2,1.0523329E-1,-5.4066433E-3,-9.49289E-2,-2.4874674E-2,-3.1982023E-2,7.141389E-2,1.05296984E-1,-3.2169152E-2,9.0283856E-2,-6.320598E-2,5.7064213E-2,1.2738508E-1,1.6105242E-1,3.7805825E-2,-9.57396E-3,1.1818593E-1,7.028826E-2,-9.333911E-2],"categories":[],"categories_nodes":[],"categories_segments":[],"categories_sizes":[],"default_left":[0,0,0,0,0,0,0,0,0,0,0,0,0,0,0,0,0,0,0,0,0,0,0,0,0,0,0,0,0,0,0,0,0,0,0,0,0,0,0,0,0,0,0,0,0,0,0,0,0,0,0,0,0,0,0,0,0,0,0,0,0,0,0],"id":6,"left_children":[1,3,5,7,9,11,13,15,17,19,21,23,25,27,29,31,33,35,37,39,41,43,45,47,49,51,53,55,57,59,61,-1,-1,-1,-1,-1,-1,-1,-1,-1,-1,-1,-1,-1,-1,-1,-1,-1,-1,-1,-1,-1,-1,-1,-1,-1,-1,-1,-1,-1,-1,-1,-1],"loss_changes":[2.3495862E5,2.9494281E4,5.2713023E4,9.084344E3,6.3826616E3,5.6571984E4,1.0276641E4,4.2562344E3,2.1927002E3,4.336462E3,1.1498652E3,2.9126475E4,1.3615969E4,6.068578E3,1.7289897E3,2.9701094E3,8.221597E2,1.7112988E3,2.6102777E2,1.1340962E3,2.5231675E3,7.586572E2,2.4974536E2,9.146701E3,2.4598932E4,6.4040938E3,3.3210962E3,6.167793E3,1.1201875E3,7.9448914E2,1.2759581E3,0E0,0E0,0E0,0E0,0E0,0E0,0E0,0E0,0E0,0E0,0E0,0E0,0E0,0E0,0E0,0E0,0E0,0E0,0E0,0E0,0E0,0E0,0E0,0E0,0E0,0E0,0E0,0E0,0E0,0E0,0E0,0E0],"parents":[2147483647,0,0,1,1,2,2,3,3,4,4,5,5,6,6,7,7,8,8,9,9,10,10,11,11,12,12,13,13,14,14,15,15,16,16,17,17,18,18,19,19,20,20,21,21,22,22,23,23,24,24,25,25,26,26,27,27,28,28,29,29,30,30],"right_children":[2,4,6,8,10,12,14,16,18,20,22,24,26,28,30,32,34,36,38,40,42,44,46,48,50,52,54,56,58,60,62,-1,-1,-1,-1,-1,-1,-1,-1,-1,-1,-1,-1,-1,-1,-1,-1,-1,-1,-1,-1,-1,-1,-1,-1,-1,-1,-1,-1,-1,-1,-1,-1],"split_conditions":[-4.5593786E-1,7.205026E-2,5.591185E-1,-4.2365685E-1,4.6527326E-1,3.6262032E-1,2.3755848E0,2.7236134E-1,1.3079512E-1,-5.181169E-1,8.7797E-1,-6.1452106E-2,8.173468E-1,1.4731408E0,-1.4075651E0,-5.355714E-1,5.052016E-1,-5.6495285E-1,-4.0685856E-1,-6.0281914E-1,8.939423E-1,2.8451002E-1,2.0138905E0,-3.446405E-1,-5.5082494E-1,2.3545132E0,-1.0611842E0,-3.3025017E-1,2.3545132E0,3.6262032E-1,6.969999E-1,-1.1142603E-1,-6.440925E-2,-3.0684995E-2,7.044469E-2,-8.088284E-2,-3.731831E-2,-2.8170863E-2,8.3611354E-2,-8.800687E-2,-3.562019E-2,-7.1992567E-3,1.06537156E-1,2.1801585E-2,9.885682E-2,1.0523329E-1,-5.4066433E-3,-9.49289E-2,-2.4874674E-2,-3.1982023E-2,7.141389E-2,1.05296984E-1,-3.2169152E-2,9.0283856E-2,-6.320598E-2,5.7064213E-2,1.2738508E-1,1.6105242E-1,3.7805825E-2,-9.57396E-3,1.1818593E-1,7.028826E-2,-9.333911E-2],"split_indices":[24,17,20,18,17,17,16,0,20,14,17,14,14,20,22,13,0,17,14,18,25,0,17,22,17,17,22,17,17,17,13,0,0,0,0,0,0,0,0,0,0,0,0,0,0,0,0,0,0,0,0,0,0,0,0,0,0,0,0,0,0,0,0],"split_type":[0,0,0,0,0,0,0,0,0,0,0,0,0,0,0,0,0,0,0,0,0,0,0,0,0,0,0,0,0,0,0,0,0,0,0,0,0,0,0,0,0,0,0,0,0,0,0,0,0,0,0,0,0,0,0,0,0,0,0,0,0,0,0],"sum_hessian":[1.3998745E6,5.4625894E5,8.536156E5,4.4277988E5,1.0347905E5,6.4597394E5,2.0764169E5,3.5527962E5,8.7500266E4,7.406792E4,2.9411121E4,4.2026828E5,2.2570562E5,1.9582061E5,1.1821083E4,3.460888E5,9.190802E3,8.398713E4,3.5131309E3,3.744688E4,3.6621043E4,2.0430068E4,8.981053E3,1.9855727E5,2.2171102E5,2.0634075E5,1.9364873E4,1.24479766E5,7.134084E4,4.37951E3,7.4415728E3,3.1261612E5,3.3472695E4,6.7165566E3,2.4742454E3,3.4284797E4,4.970234E4,5.583975E2,2.9547334E3,2.025576E4,1.719112E4,3.1523637E4,5.0974067E3,1.6969504E4,3.4605642E3,8.495891E3,4.8516187E2,6.0166742E4,1.3839053E5,8.238281E4,1.393282E5,1.9841127E5,7.92949E3,3.9955728E3,1.5369301E4,4.2739914E4,8.173985E4,6.9640305E4,1.700542E3,2.2010728E3,2.1784373E3,1.2981943E3,6.1433784E3],"tree_param":{"num_deleted":"0","num_feature":"28","num_nodes":"63","size_leaf_vector":"0"}},{"base_weights":[9.1328565E-4,-3.62172E-1,3.6888573E-1,-5.061932E-1,1.89612E-2,1.5576726E-1,5.9393054E-1,-6.3454306E-1,-2.7707848E-1,-9.963623E-2,5.034608E-1,-9.712016E-3,6.944848E-1,6.828171E-1,-3.1980865E-2,-7.54063E-1,-5.53617E-1,-3.3868402E-1,2.0212312E-1,-2.8234017E-1,1.95613E-1,3.469206E-1,6.511599E-1,-2.6716426E-1,2.2061378E-1,2.4399097E-1,8.154564E-1,5.306153E-1,8.7803686E-1,5.660765E-1,-3.0899444E-1,-1.1798266E-1,-8.182076E-2,-9.967426E-2,-6.8745255E-2,-7.393846E-2,-2.7277304E-2,6.0851242E-2,-1.1892442E-2,-6.4086564E-2,-1.4704425E-2,-2.3169195E-2,5.434714E-2,1.1024988E-2,6.962319E-2,1.10689424E-1,5.495393E-2,-9.27224E-2,-1.0762081E-2,-3.205756E-2,6.960202E-2,6.8439275E-2,-1.9406471E-2,1.0375202E-1,1.6252145E-1,5.169288E-2,1.0826414E-1,1.398893E-1,1.2691767E-2,1.1014459E-1,3.2057002E-2,2.6472311E-2,-8.778604E-2],"categories":[],"categories_nodes":[],"categories_segments":[],"categories_sizes":[],"default_left":[0,0,0,0,0,0,0,0,0,0,0,0,0,0,0,0,0,0,0,0,0,0,0,0,0,0,0,0,0,0,0,0,0,0,0,0,0,0,0,0,0,0,0,0,0,0,0,0,0,0,0,0,0,0,0,0,0,0,0,0,0,0,0],"id":7,"left_children":[1,3,5,7,9,11,13,15,17,19,21,23,25,27,29,31,33,35,37,39,41,43,45,47,49,51,53,55,57,59,61,-1,-1,-1,-1,-1,-1,-1,-1,-1,-1,-1,-1,-1,-1,-1,-1,-1,-1,-1,-1,-1,-1,-1,-1,-1,-1,-1,-1,-1,-1,-1,-1],"loss_changes":[1.8167811E5,3.7570383E4,3.2391016E4,1.4607484E4,1.0785855E4,3.0922543E4,1.8275516E4,3.0790703E3,5.265532E3,8.134525E3,8.5322363E2,1.5735476E4,4.4419453E3,8.546125E3,6.7676597E3,8.706406E2,2.0060664E3,3.822996E3,1.1638846E3,2.4878267E3,3.3640764E3,5.7444336E2,4.6904688E2,8.594288E3,1.4806713E4,1.3677129E3,2.1309219E3,5.7461016E3,5.4546797E3,7.663618E2,3.7442844E3,0E0,0E0,0E0,0E0,0E0,0E0,0E0,0E0,0E0,0E0,0E0,0E0,0E0,0E0,0E0,0E0,0E0,0E0,0E0,0E0,0E0,0E0,0E0,0E0,0E0,0E0,0E0,0E0,0E0,0E0,0E0,0E0],"parents":[2147483647,0,0,1,1,2,2,3,3,4,4,5,5,6,6,7,7,8,8,9,9,10,10,11,11,12,12,13,13,14,14,15,15,16,16,17,17,18,18,19,19,20,20,21,21,22,22,23,23,24,24,25,25,26,26,27,27,28,28,29,29,30,30],"right_children":[2,4,6,8,10,12,14,16,18,20,22,24,26,28,30,32,34,36,38,40,42,44,46,48,50,52,54,56,58,60,62,-1,-1,-1,-1,-1,-1,-1,-1,-1,-1,-1,-1,-1,-1,-1,-1,-1,-1,-1,-1,-1,-1,-1,-1,-1,-1,-1,-1,-1,-1,-1,-1],"split_conditions":[-3.2366166E-1,4.92811E-2,9.797621E-2,-3.1945777E-1,6.070977E-1,7.634065E-1,1.7319363E0,-6.201032E-1,2.946275E-1,-3.9618543E-1,8.2810175E-1,1.744474E-1,4.231042E-1,2.1162511E-1,8.7161696E-1,-6.573277E-2,7.810262E-1,5.5825657E-1,9.154351E-1,-5.666438E-1,-1.3613814E0,-1.4047993E0,1.4263558E0,-6.871515E-1,-7.5284505E-1,2.5321877E-1,2.0677347E0,6.520566E-1,1.841681E0,1.7092336E0,5.4212534E-1,-1.1798266E-1,-8.182076E-2,-9.967426E-2,-6.8745255E-2,-7.393846E-2,-2.7277304E-2,6.0851242E-2,-1.1892442E-2,-6.4086564E-2,-1.4704425E-2,-2.3169195E-2,5.434714E-2,1.1024988E-2,6.962319E-2,1.10689424E-1,5.495393E-2,-9.27224E-2,-1.0762081E-2,-3.205756E-2,6.960202E-2,6.8439275E-2,-1.9406471E-2,1.0375202E-1,1.6252145E-1,5.169288E-2,1.0826414E-1,1.398893E-1,1.2691767E-2,1.1014459E-1,3.2057002E-2,2.6472311E-2,-8.778604E-2],"split_indices":[24,17,17,14,17,20,16,18,14,14,17,14,26,20,12,0,26,26,21,18,26,26,22,22,17,16,20,17,17,17,14,0,0,0,0,0,0,0,0,0,0,0,0,0,0,0,0,0,0,0,0,0,0,0,0,0,0,0,0,0,0,0,0],"split_type":[0,0,0,0,0,0,0,0,0,0,0,0,0,0,0,0,0,0,0,0,0,0,0,0,0,0,0,0,0,0,0,0,0,0,0,0,0,0,0,0,0,0,0,0,0,0,0,0,0,0,0,0,0,0,0,0,0,0,0,0,0,0,0],"sum_hessian":[1.3598094E6,6.844499E5,6.7535944E5,4.9674238E5,1.8770748E5,3.468719E5,3.2848756E5,3.183828E5,1.7835955E5,1.5079595E5,3.691154E4,2.653612E5,8.151071E4,2.876394E5,4.084818E4,1.2853735E5,1.8984547E5,1.5804214E5,2.0317402E4,9.315223E4,5.7643727E4,1.7921074E4,1.8990465E4,1.2530185E5,1.4005933E5,1.7255367E4,6.425534E4,1.6162962E5,1.2600977E5,1.2930622E4,2.7917559E4,1.11213164E5,1.7324188E4,8.775552E4,1.0208995E5,7.967953E4,7.836261E4,1.1789304E4,8.528099E3,5.2150555E4,4.1001668E4,1.8594713E4,3.904901E4,5.378533E3,1.254254E4,1.45545625E4,4.4359023E3,4.4812586E4,8.048926E4,5.030085E4,8.9758484E4,1.1000834E4,6.2545337E3,4.395824E4,2.0297104E4,8.191966E4,7.970996E4,1.1790226E5,8.1075166E3,8.751506E3,4.1791157E3,1.0124697E4,1.7792861E4],"tree_param":{"num_deleted":"0","num_feature":"28","num_nodes":"63","size_leaf_vector":"0"}},{"base_weights":[1.0553888E-3,-2.928967E-1,3.694358E-1,-3.8769606E-1,3.626831E-1,2.7628854E-1,7.5723547E-1,-4.6126288E-1,1.8035328E-2,1.5445128E-1,6.1049116E-1,-9.3861714E-2,4.0947643E-1,8.2209074E-1,1.390797E-1,-5.728271E-1,-3.0553946E-1,-1.124076E-1,4.6544948E-1,-1.148512E-1,3.3273277E-1,6.4820635E-1,-1.3025862E-1,-3.400046E-1,2.5042555E-1,4.6788332E-1,-1.9243811E-1,5.4234135E-1,8.9359754E-1,6.378185E-1,-1.1135316E-1,-1.01917475E-1,-6.780698E-2,-7.123327E-2,-2.1933205E-2,-3.4298565E-2,3.6411755E-2,3.1392187E-2,9.364548E-2,-3.341871E-2,1.8527519E-2,1.7244363E-3,7.1244426E-2,1.1406111E-1,6.1770175E-2,9.571259E-2,-3.9327953E-2,-1.1967286E-1,-6.5689078E-3,-6.472473E-2,6.970944E-2,3.569932E-2,8.670632E-2,6.657781E-2,-6.9834664E-2,2.9778624E-2,1.2795174E-1,1.3865508E-1,1.6203662E-2,1.24467336E-1,-2.3347832E-2,3.8605522E-2,-6.577225E-2],"categories":[],"categories_nodes":[],"categories_segments":[],"categories_sizes":[],"default_left":[0,0,0,0,0,0,0,0,0,0,0,0,0,0,0,0,0,0,0,0,0,0,0,0,0,0,0,0,0,0,0,0,0,0,0,0,0,0,0,0,0,0,0,0,0,0,0,0,0,0,0,0,0,0,0,0,0,0,0,0,0,0,0],"id":8,"left_children":[1,3,5,7,9,11,13,15,17,19,21,23,25,27,29,31,33,35,37,39,41,43,45,47,49,51,53,55,57,59,61,-1,-1,-1,-1,-1,-1,-1,-1,-1,-1,-1,-1,-1,-1,-1,-1,-1,-1,-1,-1,-1,-1,-1,-1,-1,-1,-1,-1,-1,-1,-1,-1],"loss_changes":[1.4300938E5,4.565036E4,2.1172164E4,1.9154812E4,4.7884277E3,2.3299523E4,4.550871E3,9.437586E3,5.748727E3,2.421121E3,1.1838564E3,1.0597979E4,1.2218684E4,2.0546875E3,1.3465293E3,4.075461E3,6.117625E3,3.1487996E3,9.046929E2,5.168507E2,1.3862686E3,1.0691543E3,2.0834023E2,9.889099E3,7.619255E3,8.022867E3,5.3428916E3,2.234099E3,1.9776758E3,5.490458E2,8.658593E2,0E0,0E0,0E0,0E0,0E0,0E0,0E0,0E0,0E0,0E0,0E0,0E0,0E0,0E0,0E0,0E0,0E0,0E0,0E0,0E0,0E0,0E0,0E0,0E0,0E0,0E0,0E0,0E0,0E0,0E0,0E0,0E0],"parents":[2147483647,0,0,1,1,2,2,3,3,4,4,5,5,6,6,7,7,8,8,9,9,10,10,11,11,12,12,13,13,14,14,15,15,16,16,17,17,18,18,19,19,20,20,21,21,22,22,23,23,24,24,25,25,26,26,27,27,28,28,29,29,30,30],"right_children":[2,4,6,8,10,12,14,16,18,20,22,24,26,28,30,32,34,36,38,40,42,44,46,48,50,52,54,56,58,60,62,-1,-1,-1,-1,-1,-1,-1,-1,-1,-1,-1,-1,-1,-1,-1,-1,-1,-1,-1,-1,-1,-1,-1,-1,-1,-1,-1,-1,-1,-1,-1,-1],"split_conditions":[-2.4992476E-1,3.9571443E-1,8.935676E-1,-2.7879614E-2,7.044203E-1,-3.378737E-1,1.8920782E0,-2.162283E-1,4.846682E-2,-5.428997E-1,4.6619076E-1,9.1968334E-1,1.6845256E0,-7.4534774E-1,1.6825947E0,7.5063765E-1,-1.4961112E-1,-1.2532626E-1,6.000557E-1,3.658905E-1,-1.3462758E0,1.024529E0,3.9637694E-1,-1.268367E0,-1.2164762E0,-1.0729474E-1,8.7161696E-1,2.3484297E0,2.0731165E0,1.8624861E0,-1.113308E0,-1.01917475E-1,-6.780698E-2,-7.123327E-2,-2.1933205E-2,-3.4298565E-2,3.6411755E-2,3.1392187E-2,9.364548E-2,-3.341871E-2,1.8527519E-2,1.7244363E-3,7.1244426E-2,1.1406111E-1,6.1770175E-2,9.571259E-2,-3.9327953E-2,-1.1967286E-1,-6.5689078E-3,-6.472473E-2,6.970944E-2,3.569932E-2,8.670632E-2,6.657781E-2,-6.9834664E-2,2.9778624E-2,1.2795174E-1,1.3865508E-1,1.6203662E-2,1.24467336E-1,-2.3347832E-2,3.8605522E-2,-6.577225E-2],"split_indices":[6,17,20,14,17,17,16,17,20,14,14,14,16,17,12,26,26,17,26,25,26,22,16,22,17,6,12,14,17,17,22,0,0,0,0,0,0,0,0,0,0,0,0,0,0,0,0,0,0,0,0,0,0,0,0,0,0,0,0,0,0,0,0],"split_type":[0,0,0,0,0,0,0,0,0,0,0,0,0,0,0,0,0,0,0,0,0,0,0,0,0,0,0,0,0,0,0,0,0,0,0,0,0,0,0,0,0,0,0,0,0,0,0,0,0,0,0,0,0,0,0,0,0,0,0,0,0,0,0],"sum_hessian":[1.3206592E6,7.34533E5,5.8612625E5,6.4173594E5,9.279708E4,4.726098E5,1.1351643E5,5.432366E5,9.849928E4,5.0426E4,4.237108E4,1.2505695E5,3.4755288E5,1.0273719E5,1.077924E4,3.164914E5,2.2674523E5,7.626507E4,2.2234217E4,2.0085807E4,3.0340193E4,4.0318395E4,2.0526829E3,7.29223E4,5.213466E4,3.1681125E5,3.0741613E4,2.0916422E4,8.1820766E4,3.602764E3,7.176476E3,1.6809548E5,1.4839592E5,1.0991152E5,1.1683371E5,5.7458094E4,1.8806975E4,8.511253E3,1.3722965E4,1.3825342E4,6.260465E3,9.311225E3,2.1028969E4,2.7340172E4,1.2978223E4,3.0024274E2,1.7524401E3,2.8646146E4,4.427615E4,1.2466086E4,3.9668574E4,1.0263266E5,2.1417861E5,9.232484E3,2.1509129E4,9.929325E3,1.0987096E4,7.87366E4,3.0841636E3,2.9009048E3,7.0185925E2,3.3738499E3,3.8026262E3],"tree_param":{"num_deleted":"0","num_feature":"28","num_nodes":"63","size_leaf_vector":"0"}},{"base_weights":[1.0992929E-3,-2.630376E-1,3.1644407E-1,-3.465688E-1,3.0342165E-1,2.0206596E-1,5.9982026E-1,-4.9086994E-1,-1.6270186E-1,1.391704E-1,5.683009E-1,7.0648915E-3,4.126149E-1,6.3371825E-1,-2.7206168E-1,-5.747814E-1,-3.4419677E-1,-2.5223434E-1,2.5292504E-1,3.8043406E-2,5.127782E-1,6.136063E-1,-6.567546E-2,-2.0005651E-1,1.5336844E-1,4.656184E-1,-1.1847854E-1,5.5390686E-1,9.261919E-1,1.7829561E-1,-5.710636E-1,-9.592106E-2,-7.3000945E-2,-6.844481E-2,-3.2990396E-2,-5.952665E-2,-1.4050591E-2,-4.5423214E-3,6.465204E-2,-1.0094904E-2,4.094296E-2,3.0317208E-2,9.4470605E-2,1.1341972E-1,6.3637055E-2,3.9252564E-2,-5.0577868E-2,-5.132974E-2,2.3859575E-2,-1.8247498E-2,4.170785E-2,4.1242104E-2,9.7394705E-2,1.5976228E-3,-7.001325E-2,4.5842897E-2,1.0506996E-1,1.1435239E-1,1.5692133E-1,4.6488196E-2,-1.2030878E-1,-6.093005E-3,-1.08273275E-1],"categories":[],"categories_nodes":[],"categories_segments":[],"categories_sizes":[],"default_left":[0,0,0,0,0,0,0,0,0,0,0,0,0,0,0,0,0,0,0,0,0,0,0,0,0,0,0,0,0,0,0,0,0,0,0,0,0,0,0,0,0,0,0,0,0,0,0,0,0,0,0,0,0,0,0,0,0,0,0,0,0,0,0],"id":9,"left_children":[1,3,5,7,9,11,13,15,17,19,21,23,25,27,29,31,33,35,37,39,41,43,45,47,49,51,53,55,57,59,61,-1,-1,-1,-1,-1,-1,-1,-1,-1,-1,-1,-1,-1,-1,-1,-1,-1,-1,-1,-1,-1,-1,-1,-1,-1,-1,-1,-1,-1,-1,-1,-1],"loss_changes":[1.0710899E5,3.311127E4,1.8997844E4,1.6180453E4,3.912455E3,1.7145125E4,4.981672E3,4.2051094E3,9.978891E3,2.0972466E3,9.886836E2,6.569666E3,5.6522695E3,3.7866523E3,8.4959247E2,1.2385234E3,1.732E3,5.0590635E3,2.3971467E3,1.081083E3,4.2976025E2,8.6668066E2,2.0421419E2,4.581292E3,4.3567905E3,6.3938633E3,8.194706E2,4.6380117E3,6.827363E2,3.25161E2,3.0317957E2,0E0,0E0,0E0,0E0,0E0,0E0,0E0,0E0,0E0,0E0,0E0,0E0,0E0,0E0,0E0,0E0,0E0,0E0,0E0,0E0,0E0,0E0,0E0,0E0,0E0,0E0,0E0,0E0,0E0,0E0,0E0,0E0],"parents":[2147483647,0,0,1,1,2,2,3,3,4,4,5,5,6,6,7,7,8,8,9,9,10,10,11,11,12,12,13,13,14,14,15,15,16,16,17,17,18,18,19,19,20,20,21,21,22,22,23,23,24,24,25,25,26,26,27,27,28,28,29,29,30,30],"right_children":[2,4,6,8,10,12,14,16,18,20,22,24,26,28,30,32,34,36,38,40,42,44,46,48,50,52,54,56,58,60,62,-1,-1,-1,-1,-1,-1,-1,-1,-1,-1,-1,-1,-1,-1,-1,-1,-1,-1,-1,-1,-1,-1,-1,-1,-1,-1,-1,-1,-1,-1,-1,-1],"split_conditions":[-2.6327926E-1,3.8063958E-1,1.0396516E0,-3.8395923E-1,7.493501E-1,3.6004975E-1,2.5952165E0,-1.4307961E-1,-8.956005E-3,-2.0370546E-1,3.358331E-1,5.41922E-1,1.7303445E0,1.9861411E0,1.6825947E0,8.5156536E-1,3.119798E-1,-3.366509E-1,6.2927204E-1,4.3375733E-1,-1.3173158E0,8.944793E-1,1.2810057E0,4.5211992E-1,-6.035754E-1,2.3309025E-1,6.9731534E-1,-2.3310119E-1,1.0579529E0,7.111547E-1,7.009337E-1,-9.592106E-2,-7.3000945E-2,-6.844481E-2,-3.2990396E-2,-5.952665E-2,-1.4050591E-2,-4.5423214E-3,6.465204E-2,-1.0094904E-2,4.094296E-2,3.0317208E-2,9.4470605E-2,1.1341972E-1,6.3637055E-2,3.9252564E-2,-5.0577868E-2,-5.132974E-2,2.3859575E-2,-1.8247498E-2,4.170785E-2,4.1242104E-2,9.7394705E-2,1.5976228E-3,-7.001325E-2,4.5842897E-2,1.0506996E-1,1.1435239E-1,1.5692133E-1,4.6488196E-2,-1.2030878E-1,-6.093005E-3,-1.08273275E-1],"split_indices":[6,17,19,14,17,3,16,17,20,14,14,26,17,20,12,26,26,17,26,25,26,22,17,17,17,17,22,17,27,22,14,0,0,0,0,0,0,0,0,0,0,0,0,0,0,0,0,0,0,0,0,0,0,0,0,0,0,0,0,0,0,0,0],"split_type":[0,0,0,0,0,0,0,0,0,0,0,0,0,0,0,0,0,0,0,0,0,0,0,0,0,0,0,0,0,0,0,0,0,0,0,0,0,0,0,0,0,0,0,0,0,0,0,0,0,0,0,0,0,0,0,0,0,0,0,0,0,0,0],"sum_hessian":[1.2859101E6,6.9977206E5,5.8613806E5,6.0984375E5,8.992837E4,4.175896E5,1.6854847E5,3.41684E5,2.6815972E5,5.5508902E4,3.441946E4,2.1680006E5,2.0078952E5,1.6224094E5,6.3075195E3,2.1734078E5,1.2434322E5,2.2063245E5,4.7527266E4,4.3685383E4,1.1823519E4,3.2123852E4,2.2956104E3,8.974625E4,1.2705381E5,1.8256912E5,1.8220398E4,1.274616E5,3.4779344E4,2.5169253E3,3.7905942E3,1.25320086E5,9.20207E4,6.5368402E4,5.8974812E4,1.1539283E5,1.0523963E5,1.8348771E4,2.9178492E4,3.01608E4,1.3524581E4,3.2359365E3,8.587582E3,1.832681E4,1.3797041E4,1.0407804E3,1.2548298E3,6.429715E4,2.5449107E4,3.9633414E4,8.74204E4,8.958094E4,9.298819E4,1.3292827E4,4.9275703E3,4.7312375E4,8.014922E4,1.4703232E4,2.0076113E4,2.2195984E3,2.973269E2,8.391853E2,2.951409E3],"tree_param":{"num_deleted":"0","num_feature":"28","num_nodes":"63","size_leaf_vector":"0"}},{"base_weights":[1.1080758E-3,-2.1783933E-1,2.9241407E-1,-3.1657594E-1,1.6831714E-1,2.2042388E-1,6.6800195E-1,-4.3462035E-1,-1.1964571E-1,2.7302628E-2,4.8333263E-1,-3.247521E-2,3.560903E-1,7.182441E-1,-3.2420814E-2,-5.5247873E-1,-3.500719E-1,-2.0193568E-1,2.5066045E-1,-1.7727777E-1,2.149968E-1,5.069511E-1,-3.621451E-1,-1.7637905E-1,3.4727415E-1,4.2284098E-1,-1.7713624E-1,4.2835346E-1,7.9213643E-1,3.64855E-1,-2.4018654E-1,-1.0006329E-1,-7.481302E-2,-6.773779E-2,-3.5590786E-2,-3.6255527E-2,4.4356845E-2,3.5163404E-3,6.3935235E-2,-3.4363262E-2,2.0937541E-2,-1.0252748E-2,5.629545E-2,5.22963E-2,9.5004104E-2,-2.5620224E-2,-7.2552785E-2,-1.09456874E-1,6.028286E-3,-5.391597E-2,8.1499115E-2,3.491341E-2,8.200231E-2,5.6030583E-2,-6.017519E-2,9.4062604E-2,7.359419E-3,9.134227E-2,1.3855167E-1,8.683441E-2,-6.2472825E-3,-6.65572E-2,2.844498E-2],"categories":[],"categories_nodes":[],"categories_segments":[],"categories_sizes":[],"default_left":[0,0,0,0,0,0,0,0,0,0,0,0,0,0,0,0,0,0,0,0,0,0,0,0,0,0,0,0,0,0,0,0,0,0,0,0,0,0,0,0,0,0,0,0,0,0,0,0,0,0,0,0,0,0,0,0,0,0,0,0,0,0,0],"id":10,"left_children":[1,3,5,7,9,11,13,15,17,19,21,23,25,27,29,31,33,35,37,39,41,43,45,47,49,51,53,55,57,59,61,-1,-1,-1,-1,-1,-1,-1,-1,-1,-1,-1,-1,-1,-1,-1,-1,-1,-1,-1,-1,-1,-1,-1,-1,-1,-1,-1,-1,-1,-1,-1,-1],"loss_changes":[8.006373E4,2.7324508E4,1.4564008E4,1.326734E4,6.4824478E3,1.5508314E4,3.048836E3,3.5555469E3,6.517958E3,3.8708503E3,9.0127344E2,8.624379E3,1.0471242E4,1.7312734E3,4.7878625E2,9.174492E2,2.379125E3,3.4634956E3,1.5514688E3,7.918782E2,2.3880352E3,8.7827246E2,2.8449753E1,1.3714895E4,6.009233E3,6.1547227E3,4.0381062E3,1.2378206E3,1.5516836E3,1.7333783E2,3.332669E2,0E0,0E0,0E0,0E0,0E0,0E0,0E0,0E0,0E0,0E0,0E0,0E0,0E0,0E0,0E0,0E0,0E0,0E0,0E0,0E0,0E0,0E0,0E0,0E0,0E0,0E0,0E0,0E0,0E0,0E0,0E0,0E0],"parents":[2147483647,0,0,1,1,2,2,3,3,4,4,5,5,6,6,7,7,8,8,9,9,10,10,11,11,12,12,13,13,14,14,15,15,16,16,17,17,18,18,19,19,20,20,21,21,22,22,23,23,24,24,25,25,26,26,27,27,28,28,29,29,30,30],"right_children":[2,4,6,8,10,12,14,16,18,20,22,24,26,28,30,32,34,36,38,40,42,44,46,48,50,52,54,56,58,60,62,-1,-1,-1,-1,-1,-1,-1,-1,-1,-1,-1,-1,-1,-1,-1,-1,-1,-1,-1,-1,-1,-1,-1,-1,-1,-1,-1,-1,-1,-1,-1,-1],"split_conditions":[-2.335352E-1,2.2037654E-1,1.0367767E0,-3.0313417E-1,6.683658E-1,-1.9156352E-1,1.7464187E0,-4.125254E-1,2.0184558E-2,-4.913184E-1,2.5344594E0,1.3092365E0,1.5416952E0,1.8700603E-1,1.6825947E0,-6.4130336E-1,5.5527717E-1,4.6704993E-1,7.0510304E-1,4.804111E-1,-1.1829772E0,9.08752E-1,3.1972494E0,-1.5285751E0,-1.2871944E0,1.2526768E-1,8.7161696E-1,1.0072292E0,-3.8064727E-1,1.5416952E0,4.381831E0,-1.0006329E-1,-7.481302E-2,-6.773779E-2,-3.5590786E-2,-3.6255527E-2,4.4356845E-2,3.5163404E-3,6.3935235E-2,-3.4363262E-2,2.0937541E-2,-1.0252748E-2,5.629545E-2,5.22963E-2,9.5004104E-2,-2.5620224E-2,-7.2552785E-2,-1.09456874E-1,6.028286E-3,-5.391597E-2,8.1499115E-2,3.491341E-2,8.200231E-2,5.6030583E-2,-6.017519E-2,9.4062604E-2,7.359419E-3,9.134227E-2,1.3855167E-1,8.683441E-2,-6.2472825E-3,-6.65572E-2,2.844498E-2],"split_indices":[6,17,20,14,17,17,17,17,20,14,17,14,16,26,12,18,26,14,26,16,26,17,17,22,17,26,12,16,17,16,24,0,0,0,0,0,0,0,0,0,0,0,0,0,0,0,0,0,0,0,0,0,0,0,0,0,0,0,0,0,0,0,0],"split_type":[0,0,0,0,0,0,0,0,0,0,0,0,0,0,0,0,0,0,0,0,0,0,0,0,0,0,0,0,0,0,0,0,0,0,0,0,0,0,0,0,0,0,0,0,0,0,0,0,0,0,0,0,0,0,0,0,0,0,0,0,0,0,0],"sum_hessian":[1.2552951E6,7.166539E5,5.3864125E5,5.70725E5,1.4592888E5,4.5200544E5,8.663582E4,3.5683112E5,2.1389384E5,1.0080521E5,4.5123668E4,1.5781655E5,2.941889E5,8.083725E4,5.7985747E3,1.4905156E5,2.0777956E5,1.7500453E5,3.888931E4,4.8232953E4,5.2572258E4,4.389778E4,1.2258868E3,1.1444776E5,4.3368785E4,2.61459E5,3.2729904E4,1.6421213E4,6.4416035E4,1.9909178E3,3.8076567E3,4.7567137E4,1.0148443E5,1.0935951E5,9.842006E4,1.6205498E5,1.294955E4,1.6952066E4,2.1937242E4,4.1454863E4,6.778089E3,1.8996195E4,3.3576062E4,1.949143E4,2.4406352E4,4.7713177E2,7.4875507E2,3.2192664E4,8.225509E4,9.418184E3,3.39506E4,1.0314444E5,1.5831456E5,9.464745E3,2.3265158E4,1.0774976E4,5.6462363E3,2.6925078E4,3.7490957E4,1.3039236E3,6.869942E2,2.5840337E3,1.2236229E3],"tree_param":{"num_deleted":"0","num_feature":"28","num_nodes":"63","size_leaf_vector":"0"}},{"base_weights":[1.1370343E-3,-1.9997431E-1,2.523362E-1,-3.2598376E-1,1.4483462E-2,1.1041551E-1,4.2767566E-1,-3.8227794E-1,-3.0732106E-3,-6.283532E-2,3.1743547E-1,-1.17599875E-1,3.430679E-1,5.1750547E-1,-1.7131118E-1,-4.975308E-1,-2.9982495E-1,-7.20039E-2,4.5798784E-1,-1.2883185E-1,4.6718323E-1,4.951034E-1,1.4159782E-1,-4.921976E-1,9.645963E-2,-5.708815E-2,5.1485604E-1,2.7136555E-1,6.565616E-1,1.566026E-1,-2.9124895E-1,-7.7595696E-2,-2.1033082E-2,-6.491494E-2,-2.8457563E-2,-3.830914E-2,1.1194431E-2,1.2301313E-1,3.726839E-2,-2.8146166E-2,2.7482381E-2,7.970696E-2,2.1804063E-2,5.9378292E-2,1.0230868E-1,-5.316698E-3,8.569188E-2,-4.6081943E-4,-9.207861E-2,-1.264487E-2,6.591065E-2,-5.8049534E-2,7.311681E-2,-1.1583901E-2,9.158503E-2,-1.3201522E-2,7.805064E-2,1.0143697E-1,-6.578129E-2,7.751343E-2,-6.352921E-2,-5.549882E-2,2.9696194E-2],"categories":[],"categories_nodes":[],"categories_segments":[],"categories_sizes":[],"default_left":[0,0,0,0,0,0,0,0,0,0,0,0,0,0,0,0,0,0,0,0,0,0,0,0,0,0,0,0,0,0,0,0,0,0,0,0,0,0,0,0,0,0,0,0,0,0,0,0,0,0,0,0,0,0,0,0,0,0,0,0,0,0,0],"id":11,"left_children":[1,3,5,7,9,11,13,15,17,19,21,23,25,27,29,31,33,35,37,39,41,43,45,47,49,51,53,55,57,59,61,-1,-1,-1,-1,-1,-1,-1,-1,-1,-1,-1,-1,-1,-1,-1,-1,-1,-1,-1,-1,-1,-1,-1,-1,-1,-1,-1,-1,-1,-1,-1,-1],"loss_changes":[6.193964E4,1.8400953E4,1.3565555E4,7.7966484E3,5.9031675E3,1.598279E4,1.3121516E4,3.4706367E3,2.023656E3,7.023011E3,1.6007368E3,1.2201213E4,1.0251344E4,7.258035E3,1.2508405E3,1.0761211E3,3.1165527E3,1.4896001E3,6.2812573E2,3.2765325E3,4.5922998E2,4.7264795E2,1.9592192E3,3.292622E3,6.002528E3,8.046995E3,5.9126094E3,6.849797E3,2.921379E3,1.7798872E3,8.97136E2,0E0,0E0,0E0,0E0,0E0,0E0,0E0,0E0,0E0,0E0,0E0,0E0,0E0,0E0,0E0,0E0,0E0,0E0,0E0,0E0,0E0,0E0,0E0,0E0,0E0,0E0,0E0,0E0,0E0,0E0,0E0,0E0],"parents":[2147483647,0,0,1,1,2,2,3,3,4,4,5,5,6,6,7,7,8,8,9,9,10,10,11,11,12,12,13,13,14,14,15,15,16,16,17,17,18,18,19,19,20,20,21,21,22,22,23,23,24,24,25,25,26,26,27,27,28,28,29,29,30,30],"right_children":[2,4,6,8,10,12,14,16,18,20,22,24,26,28,30,32,34,36,38,40,42,44,46,48,50,52,54,56,58,60,62,-1,-1,-1,-1,-1,-1,-1,-1,-1,-1,-1,-1,-1,-1,-1,-1,-1,-1,-1,-1,-1,-1,-1,-1,-1,-1,-1,-1,-1,-1,-1,-1],"split_conditions":[-2.4852616E-1,-4.1024256E-2,1.3664947E-1,2.1983454E-2,-1.7697306E-1,4.3056962E-1,1.7559599E0,-5.87403E-1,6.042146E-1,7.7010137E-1,-4.372104E-1,-8.7443817E-1,-9.216864E-1,-5.9850823E-2,-1.239048E-1,8.4290035E-2,7.8983706E-1,-5.174515E-1,8.558246E-1,5.264196E-1,1.4353952E0,1.08392894E-1,3.7048095E-1,-8.79013E-1,5.8499157E-2,2.471055E0,1.1862467E-1,6.2961817E-1,2.8405879E0,2.5661778E0,3.481615E0,-7.7595696E-2,-2.1033082E-2,-6.491494E-2,-2.8457563E-2,-3.830914E-2,1.1194431E-2,1.2301313E-1,3.726839E-2,-2.8146166E-2,2.7482381E-2,7.970696E-2,2.1804063E-2,5.9378292E-2,1.0230868E-1,-5.316698E-3,8.569188E-2,-4.6081943E-4,-9.207861E-2,-1.264487E-2,6.591065E-2,-5.8049534E-2,7.311681E-2,-1.1583901E-2,9.158503E-2,-1.3201522E-2,7.805064E-2,1.0143697E-1,-6.578129E-2,7.751343E-2,-6.352921E-2,-5.549882E-2,2.9696194E-2],"split_indices":[24,17,17,14,14,14,17,18,14,17,16,22,17,26,14,0,26,17,21,25,22,14,0,25,24,14,26,17,16,17,24,0,0,0,0,0,0,0,0,0,0,0,0,0,0,0,0,0,0,0,0,0,0,0,0,0,0,0,0,0,0,0,0],"split_type":[0,0,0,0,0,0,0,0,0,0,0,0,0,0,0,0,0,0,0,0,0,0,0,0,0,0,0,0,0,0,0,0,0,0,0,0,0,0,0,0,0,0,0,0,0,0,0,0,0,0,0,0,0,0,0,0,0,0,0,0,0,0,0],"sum_hessian":[1.2260641E6,6.8091794E5,5.451462E5,4.2890484E5,2.5201308E5,3.012856E5,2.4386058E5,3.6523234E5,6.3672477E4,2.00773E5,5.1240074E4,1.521594E5,1.491262E5,2.120584E5,3.1802174E4,1.523176E5,2.1291477E5,5.5391973E4,8.280504E3,1.7854216E5,2.2230846E4,2.5486488E4,2.5753588E4,5.533082E4,9.682858E4,4.4791484E4,1.0433472E5,7.655435E4,1.3550406E5,8.516763E3,2.3285412E4,1.4432981E5,7.987769E3,9.645484E4,1.1645993E5,2.4610973E4,3.0780998E4,3.0341558E3,5.246348E3,1.5022988E5,2.8312283E4,1.8533229E4,3.6976167E3,1.6650428E4,8.83606E3,1.823932E4,7.5142666E3,1.102132E4,4.43095E4,6.3408227E4,3.3420355E4,2.7892777E4,1.6898709E4,1.4518873E4,8.981584E4,3.1330852E4,4.5223496E4,1.331117E5,2.3923484E3,5.2546855E3,3.262077E3,2.0057322E4,3.22809E3],"tree_param":{"num_deleted":"0","num_feature":"28","num_nodes":"63","size_leaf_vector":"0"}},{"base_weights":[1.284412E-3,-1.6170578E-1,2.3913035E-1,-2.1931386E-1,2.6853186E-1,1.4999992E-1,4.934561E-1,-3.6960503E-1,-9.480197E-2,1.5273148E-1,4.7948384E-1,-1.1075735E-2,3.2114655E-1,2.6398256E-1,6.043135E-1,-7.090953E-1,-3.4106097E-1,-1.4940712E-1,2.617278E-1,-9.4592124E-2,2.650258E-1,5.4461324E-1,-1.7071182E-1,2.658993E-2,-6.842456E-1,3.7160918E-1,-8.8830926E-2,2.498315E-2,5.013454E-1,3.7621814E-1,6.9274735E-1,-1.1865445E-1,-8.1518665E-2,-6.93363E-2,-3.550859E-2,-4.4265382E-2,-6.2736487E-3,1.2409656E-3,5.832277E-2,-3.1520784E-2,2.2124356E-2,1.6873822E-2,6.6353254E-2,1.0012879E-1,4.238205E-2,6.7876644E-2,-4.575827E-2,-7.858852E-3,4.128363E-2,-1.3395262E-1,-3.4275938E-2,3.4380574E-2,8.325705E-2,1.241263E-3,-6.8354465E-2,-2.8989716E-2,6.397535E-2,1.0558334E-1,4.6722125E-3,-1.0641539E-2,8.9308605E-2,1.0930308E-1,-9.55491E-3],"categories":[],"categories_nodes":[],"categories_segments":[],"categories_sizes":[],"default_left":[0,0,0,0,0,0,0,0,0,0,0,0,0,0,0,0,0,0,0,0,0,0,0,0,0,0,0,0,0,0,0,0,0,0,0,0,0,0,0,0,0,0,0,0,0,0,0,0,0,0,0,0,0,0,0,0,0,0,0,0,0,0,0],"id":12,"left_children":[1,3,5,7,9,11,13,15,17,19,21,23,25,27,29,31,33,35,37,39,41,43,45,47,49,51,53,55,57,59,61,-1,-1,-1,-1,-1,-1,-1,-1,-1,-1,-1,-1,-1,-1,-1,-1,-1,-1,-1,-1,-1,-1,-1,-1,-1,-1,-1,-1,-1,-1,-1,-1],"loss_changes":[4.641805E4,1.76097E4,1.103666E4,1.1725404E4,2.0494624E3,9.939018E3,3.2140547E3,2.7509219E3,6.671608E3,1.5044202E3,1.2592144E3,4.709327E3,3.6164297E3,2.334891E3,1.7181992E3,2.9838965E2,3.3111191E3,4.6579893E3,1.4661016E3,4.7318594E2,1.007605E3,8.703657E2,2.2686417E2,3.4541184E3,9.361787E2,4.0656973E3,6.825221E2,1.7973531E3,1.9665801E3,2.332964E3,1.6690352E3,0E0,0E0,0E0,0E0,0E0,0E0,0E0,0E0,0E0,0E0,0E0,0E0,0E0,0E0,0E0,0E0,0E0,0E0,0E0,0E0,0E0,0E0,0E0,0E0,0E0,0E0,0E0,0E0,0E0,0E0,0E0,0E0],"parents":[2147483647,0,0,1,1,2,2,3,3,4,4,5,5,6,6,7,7,8,8,9,9,10,10,11,11,12,12,13,13,14,14,15,15,16,16,17,17,18,18,19,19,20,20,21,21,22,22,23,23,24,24,25,25,26,26,27,27,28,28,29,29,30,30],"right_children":[2,4,6,8,10,12,14,16,18,20,22,24,26,28,30,32,34,36,38,40,42,44,46,48,50,52,54,56,58,60,62,-1,-1,-1,-1,-1,-1,-1,-1,-1,-1,-1,-1,-1,-1,-1,-1,-1,-1,-1,-1,-1,-1,-1,-1,-1,-1,-1,-1,-1,-1,-1,-1],"split_conditions":[-2.0951734E-1,4.4337294E-1,1.0513659E0,-4.518972E-1,8.4397316E-1,4.1936174E-1,4.6179968E-1,-1.1815764E-1,7.916983E-2,-1.3866035E0,2.6825866E-1,2.4808536E0,1.6527177E0,3.0208245E-1,-6.114805E-1,8.42952E-1,-6.3163453E-1,-3.9195913E-1,5.1760644E-1,3.3900097E-1,-4.091716E-1,1.0499233E0,3.9566013E-1,3.1062776E-1,2.53754E0,3.192852E-1,7.6799196E-1,-3.1524384E-1,1.1645048E0,8.3826363E-1,1.6527177E0,-1.1865445E-1,-8.1518665E-2,-6.93363E-2,-3.550859E-2,-4.4265382E-2,-6.2736487E-3,1.2409656E-3,5.832277E-2,-3.1520784E-2,2.2124356E-2,1.6873822E-2,6.6353254E-2,1.0012879E-1,4.238205E-2,6.7876644E-2,-4.575827E-2,-7.858852E-3,4.128363E-2,-1.3395262E-1,-3.4275938E-2,3.4380574E-2,8.325705E-2,1.241263E-3,-6.8354465E-2,-2.8989716E-2,6.397535E-2,1.0558334E-1,4.6722125E-3,-1.0641539E-2,8.9308605E-2,1.0930308E-1,-9.55491E-3],"split_indices":[6,17,19,14,17,3,26,22,20,26,14,16,17,17,17,26,24,17,26,25,14,22,16,17,0,17,22,22,16,14,17,0,0,0,0,0,0,0,0,0,0,0,0,0,0,0,0,0,0,0,0,0,0,0,0,0,0,0,0,0,0,0,0],"split_type":[0,0,0,0,0,0,0,0,0,0,0,0,0,0,0,0,0,0,0,0,0,0,0,0,0,0,0,0,0,0,0,0,0,0,0,0,0,0,0,0,0,0,0,0,0,0,0,0,0,0,0,0,0,0,0,0,0,0,0,0,0,0,0],"sum_hessian":[1.1973718E6,7.1049006E5,4.8688166E5,6.2659106E5,8.3898984E4,3.60532E5,1.2634966E5,2.8390438E5,3.426867E5,5.416647E4,2.973252E4,1.8573106E5,1.7480095E5,4.1157496E4,8.519216E4,2.2017252E4,2.6188711E5,2.9717306E5,4.5513652E4,1.6914074E4,3.7252395E4,2.702556E4,2.7069597E3,1.7589047E5,9.840585E3,1.5564345E5,1.9157492E4,2.0508598E4,2.0648898E4,2.380297E4,6.1389188E4,1.4728078E4,7.289173E3,1.2116176E5,1.4072534E5,1.2622689E5,1.7094616E5,1.5200537E4,3.0313115E4,1.1449472E4,5.464602E3,2.0027195E4,1.72252E4,1.8396059E4,8.629501E3,4.7961987E2,2.2273398E3,1.3348714E5,4.2403336E4,6.748276E3,3.0923093E3,8.762284E4,6.802062E4,1.5148735E4,4.0087573E3,1.3286933E4,7.221666E3,1.4431742E4,6.2171562E3,7.829562E3,1.5973408E4,5.860483E4,2.7843574E3],"tree_param":{"num_deleted":"0","num_feature":"28","num_nodes":"63","size_leaf_vector":"0"}},{"base_weights":[1.3222784E-3,-1.00219E-1,3.0199862E-1,-2.1413423E-1,1.3081858E-1,3.0371193E-2,4.1322094E-1,-2.928979E-1,2.4331389E-2,3.0990908E-2,3.1950283E-1,1.994325E-1,-2.4364619E-1,1.3538289E-1,5.370503E-1,-3.8287815E-1,-1.9310431E-1,-7.395757E-2,3.1266612E-1,-9.783405E-2,3.690096E-1,4.203509E-1,-3.196796E-1,-2.594846E-2,5.858251E-1,8.1787154E-2,-5.1030463E-1,-9.684952E-2,5.0905764E-1,5.776085E-1,-1.19105466E-1,-9.6000314E-2,-5.003074E-2,-5.2738987E-2,-1.349447E-2,-3.8494572E-2,1.4522448E-2,6.563123E-2,1.6758407E-2,-3.802323E-2,1.164662E-3,8.2576275E-2,1.2333928E-2,6.93684E-2,-3.568633E-2,-4.4707647E-3,-8.8128984E-2,-3.4434423E-2,5.036233E-2,9.852485E-2,-1.4856944E-2,-2.6633902E-2,4.7825087E-2,-1.06280446E-1,1.6701875E-2,-1.5557954E-1,3.913845E-2,2.2774667E-2,1.3112353E-1,5.6387756E-2,9.972235E-2,4.71882E-2,-4.1235432E-2],"categories":[],"categories_nodes":[],"categories_segments":[],"categories_sizes":[],"default_left":[0,0,0,0,0,0,0,0,0,0,0,0,0,0,0,0,0,0,0,0,0,0,0,0,0,0,0,0,0,0,0,0,0,0,0,0,0,0,0,0,0,0,0,0,0,0,0,0,0,0,0,0,0,0,0,0,0,0,0,0,0,0,0],"id":13,"left_children":[1,3,5,7,9,11,13,15,17,19,21,23,25,27,29,31,33,35,37,39,41,43,45,47,49,51,53,55,57,59,61,-1,-1,-1,-1,-1,-1,-1,-1,-1,-1,-1,-1,-1,-1,-1,-1,-1,-1,-1,-1,-1,-1,-1,-1,-1,-1,-1,-1,-1,-1,-1,-1],"loss_changes":[3.5859258E4,2.3108012E4,8.957896E3,1.1045182E4,5.4614316E3,3.9905952E3,7.2376367E3,3.9693125E3,4.1379053E3,8.257295E3,6.46709E3,4.6393716E3,2.8523508E3,5.628237E3,3.8726133E3,2.9488125E3,3.4262212E3,3.3969321E3,9.3137085E2,2.256761E3,2.7236172E3,2.4017979E3,1.0615317E3,2.4781602E3,9.5451074E2,9.1014844E2,2.2263345E3,1.3457139E4,3.2419644E3,2.410211E3,5.725139E2,0E0,0E0,0E0,0E0,0E0,0E0,0E0,0E0,0E0,0E0,0E0,0E0,0E0,0E0,0E0,0E0,0E0,0E0,0E0,0E0,0E0,0E0,0E0,0E0,0E0,0E0,0E0,0E0,0E0,0E0,0E0,0E0],"parents":[2147483647,0,0,1,1,2,2,3,3,4,4,5,5,6,6,7,7,8,8,9,9,10,10,11,11,12,12,13,13,14,14,15,15,16,16,17,17,18,18,19,19,20,20,21,21,22,22,23,23,24,24,25,25,26,26,27,27,28,28,29,29,30,30],"right_children":[2,4,6,8,10,12,14,16,18,20,22,24,26,28,30,32,34,36,38,40,42,44,46,48,50,52,54,56,58,60,62,-1,-1,-1,-1,-1,-1,-1,-1,-1,-1,-1,-1,-1,-1,-1,-1,-1,-1,-1,-1,-1,-1,-1,-1,-1,-1,-1,-1,-1,-1,-1,-1],"split_conditions":[1.8668562E-1,1.15676E-1,3.070113E-1,-6.8968153E-3,6.399764E-1,7.880406E-1,-5.742119E-1,7.115892E-1,4.622142E-2,-1.6325992E-1,4.281905E-1,3.8499746E-1,3.6537427E-1,1.8607367E0,1.5685276E0,-1.9474262E-2,-5.284926E-1,6.912649E-1,-4.5933852E-1,-5.698304E-1,-1.8993156E-1,2.2119112E0,8.7161696E-1,2.7060476E-1,2.2119112E0,5.2674544E-1,2.7594235E0,-1.8970684E0,-2.433646E0,-1.5747723E-1,-8.362445E-2,-9.6000314E-2,-5.003074E-2,-5.2738987E-2,-1.349447E-2,-3.8494572E-2,1.4522448E-2,6.563123E-2,1.6758407E-2,-3.802323E-2,1.164662E-3,8.2576275E-2,1.2333928E-2,6.93684E-2,-3.568633E-2,-4.4707647E-3,-8.8128984E-2,-3.4434423E-2,5.036233E-2,9.852485E-2,-1.4856944E-2,-2.6633902E-2,4.7825087E-2,-1.06280446E-1,1.6701875E-2,-1.5557954E-1,3.913845E-2,2.2774667E-2,1.3112353E-1,5.6387756E-2,9.972235E-2,4.71882E-2,-4.1235432E-2],"split_indices":[20,17,26,14,17,16,17,26,3,14,14,17,14,14,17,22,14,26,16,14,16,17,12,14,17,17,24,22,22,14,14,0,0,0,0,0,0,0,0,0,0,0,0,0,0,0,0,0,0,0,0,0,0,0,0,0,0,0,0,0,0,0,0],"split_type":[0,0,0,0,0,0,0,0,0,0,0,0,0,0,0,0,0,0,0,0,0,0,0,0,0,0,0,0,0,0,0,0,0,0,0,0,0,0,0,0,0,0,0,0,0,0,0,0,0,0,0,0,0,0,0,0,0,0,0,0,0,0,0],"sum_hessian":[1.1745155E6,8.780053E5,2.9651012E5,5.8805794E5,2.899474E5,8.614002E4,2.103701E5,4.4205103E5,1.460069E5,1.896238E5,1.0032359E5,5.3272562E4,3.2867457E4,6.485527E4,1.4551483E5,2.3245345E5,2.0959758E5,1.0888902E5,3.7117883E4,1.3729784E5,5.232595E4,8.6652234E4,1.3671359E4,3.3647227E4,1.9625338E4,1.4802721E4,1.8064738E4,3.9997965E4,2.4857305E4,1.37044E5,8.470831E3,3.742249E4,1.9503097E5,8.26277E4,1.26969875E5,5.261136E4,5.6277668E4,2.2891117E4,1.4226767E4,5.549531E4,8.180254E4,3.204467E4,2.0281281E4,8.1443086E4,5.2091455E3,6.5662344E3,7.1051255E3,2.1528379E4,1.2118848E4,1.778177E4,1.8435674E3,7.068985E3,7.7337363E3,1.3696927E4,4.3678105E3,1.1023245E4,2.8974719E4,1.2564828E4,1.2292478E4,4.136998E4,9.5674016E4,2.2384993E3,6.2323315E3],"tree_param":{"num_deleted":"0","num_feature":"28","num_nodes":"63","size_leaf_vector":"0"}},{"base_weights":[1.4462328E-3,-1.2856318E-1,1.846544E-1,-2.3995605E-1,1.1728354E-2,1.3285623E-1,5.457514E-1,-2.784644E-1,6.366843E-2,-1.7476137E-1,9.278184E-2,-8.860427E-2,2.2533333E-1,4.6565825E-1,8.582838E-1,-3.19395E-1,-6.436006E-2,-2.909006E-1,1.6608194E-1,-2.3319075E-1,2.2884426E-1,-7.947437E-2,1.9499344E-1,-2.1131696E-1,2.9174832E-1,1.1341436E-2,3.6169472E-1,5.2849275E-1,1.1043558E-1,5.97387E-1,9.8470616E-1,-6.0859364E-2,-3.662825E-2,-2.4321984E-2,1.0709757E-2,-9.06252E-2,-4.6677715E-3,1.2028505E-2,7.0817396E-2,1.6909035E-2,-4.2474244E-2,4.3558076E-2,-5.4012954E-2,-1.8426523E-2,7.275686E-2,3.9293308E-2,-2.061351E-2,-1.0213734E-1,2.049798E-3,-5.944576E-2,7.2947115E-2,-3.316698E-2,3.3673923E-2,6.0328085E-2,-3.855196E-2,5.0515573E-2,9.992657E-2,8.3631456E-2,-2.01479E-2,6.736395E-2,1.17959656E-1,1.5415013E-1,7.681037E-2],"categories":[],"categories_nodes":[],"categories_segments":[],"categories_sizes":[],"default_left":[0,0,0,0,0,0,0,0,0,0,0,0,0,0,0,0,0,0,0,0,0,0,0,0,0,0,0,0,0,0,0,0,0,0,0,0,0,0,0,0,0,0,0,0,0,0,0,0,0,0,0,0,0,0,0,0,0,0,0,0,0,0,0],"id":14,"left_children":[1,3,5,7,9,11,13,15,17,19,21,23,25,27,29,31,33,35,37,39,41,43,45,47,49,51,53,55,57,59,61,-1,-1,-1,-1,-1,-1,-1,-1,-1,-1,-1,-1,-1,-1,-1,-1,-1,-1,-1,-1,-1,-1,-1,-1,-1,-1,-1,-1,-1,-1,-1,-1],"loss_changes":[2.7417072E4,1.0521778E4,8.936444E3,4.3880234E3,4.5043364E3,8.557505E3,1.4999512E3,2.9186914E3,1.5339661E3,2.129028E3,3.657142E3,5.744993E3,8.601168E3,1.0649121E3,4.0265723E2,1.8153398E3,7.09625E2,7.704281E2,8.615022E2,1.3632231E3,4.1391327E2,1.8938745E3,2.9017886E3,9.832167E3,4.019663E3,5.6844463E3,4.5105605E3,1.069959E3,7.8498737E2,1.1156958E2,1.6666016E2,0E0,0E0,0E0,0E0,0E0,0E0,0E0,0E0,0E0,0E0,0E0,0E0,0E0,0E0,0E0,0E0,0E0,0E0,0E0,0E0,0E0,0E0,0E0,0E0,0E0,0E0,0E0,0E0,0E0,0E0,0E0,0E0],"parents":[2147483647,0,0,1,1,2,2,3,3,4,4,5,5,6,6,7,7,8,8,9,9,10,10,11,11,12,12,13,13,14,14,15,15,16,16,17,17,18,18,19,19,20,20,21,21,22,22,23,23,24,24,25,25,26,26,27,27,28,28,29,29,30,30],"right_children":[2,4,6,8,10,12,14,16,18,20,22,24,26,28,30,32,34,36,38,40,42,44,46,48,50,52,54,56,58,60,62,-1,-1,-1,-1,-1,-1,-1,-1,-1,-1,-1,-1,-1,-1,-1,-1,-1,-1,-1,-1,-1,-1,-1,-1,-1,-1,-1,-1,-1,-1,-1,-1],"split_conditions":[-2.0576966E-1,-1.17662586E-1,1.2728952E0,1.0235354E0,-1.3959293E0,-3.869778E-1,3.5507798E0,4.9837347E-2,-3.1161526E-1,4.3081057E-1,-5.150769E-1,1.6768814E0,2.3057137E-1,1.4814918E0,1.0583967E0,-5.190293E-1,-2.691652E-1,-2.9194853E-1,1.0784731E0,-6.1888313E-1,8.8747495E-1,8.9735305E-1,9.260587E-1,-1.6141717E0,-1.3765284E0,5.0702536E-1,1.6699886E0,-3.0665293E-1,1.6825947E0,8.4812605E-1,3.3045502E0,-6.0859364E-2,-3.662825E-2,-2.4321984E-2,1.0709757E-2,-9.06252E-2,-4.6677715E-3,1.2028505E-2,7.0817396E-2,1.6909035E-2,-4.2474244E-2,4.3558076E-2,-5.4012954E-2,-1.8426523E-2,7.275686E-2,3.9293308E-2,-2.061351E-2,-1.0213734E-1,2.049798E-3,-5.944576E-2,7.2947115E-2,-3.316698E-2,3.3673923E-2,6.0328085E-2,-3.855196E-2,5.0515573E-2,9.992657E-2,8.3631456E-2,-2.01479E-2,6.736395E-2,1.17959656E-1,1.5415013E-1,7.681037E-2],"split_indices":[24,17,20,19,26,17,20,23,22,0,14,14,26,16,27,17,14,16,21,25,21,17,26,22,17,17,17,17,12,3,12,0,0,0,0,0,0,0,0,0,0,0,0,0,0,0,0,0,0,0,0,0,0,0,0,0,0,0,0,0,0,0,0],"split_type":[0,0,0,0,0,0,0,0,0,0,0,0,0,0,0,0,0,0,0,0,0,0,0,0,0,0,0,0,0,0,0,0,0,0,0,0,0,0,0,0,0,0,0,0,0,0,0,0,0,0,0,0,0,0,0,0,0,0,0,0,0,0,0],"sum_hessian":[1.1510672E6,6.732859E5,4.7778138E5,3.7529625E5,2.9798962E5,4.1784438E5,5.993701E4,3.3305528E5,4.2240953E4,9.027702E4,2.0771261E5,1.2308509E5,2.9475928E5,4.7712215E4,1.2224797E4,2.7960278E5,5.3452496E4,9.466129E3,3.2774824E4,7.8860875E4,1.1416146E4,7.735209E4,1.30360516E5,9.306128E4,3.0023807E4,1.14724E5,1.8003528E5,4.0540594E4,7.1716216E3,3.9920864E3,8.23271E3,1.3016941E5,1.4943338E5,3.107154E4,2.2380955E4,4.2907056E3,5.1754233E3,2.5593096E4,7.1817295E3,9.954024E3,6.890685E4,1.0336496E4,1.0796506E3,7.183423E4,5.5178643E3,1.08503766E5,2.1856752E4,3.0142902E4,6.2918383E4,6.6182607E3,2.3405545E4,5.4877113E4,5.9846883E4,1.6897662E5,1.105865E4,1.6946467E4,2.3594127E4,2.5365981E3,4.6350234E3,2.2388806E3,1.7532058E3,7.5456577E3,6.870525E2],"tree_param":{"num_deleted":"0","num_feature":"28","num_nodes":"63","size_leaf_vector":"0"}},{"base_weights":[1.3764084E-3,-7.444924E-2,2.6742193E-1,-1.4188144E-1,1.6284247E-1,1.879325E-1,4.5325068E-1,-2.1471992E-1,3.3907418E-5,-3.9028108E-2,2.8206268E-1,1.6775507E-1,7.855122E-1,5.030589E-1,-1.2302538E-1,-3.1651852E-1,-1.2218364E-1,-1.10067755E-1,1.0230563E-1,-2.5926664E-1,1.3748798E-1,1.9493009E-1,4.770275E-1,-7.983456E-1,1.9110784E-1,5.3017974E-1,8.909379E-1,3.7389323E-1,6.9684774E-1,9.6486606E-2,-3.628691E-1,-6.206351E-2,-3.708755E-2,-2.711498E-2,2.6809571E-2,-5.953721E-3,-6.349711E-2,3.173365E-2,-1.46109415E-2,-5.632969E-2,5.0907217E-2,4.939193E-2,-8.8521955E-4,-5.8214474E-2,3.9966278E-2,-4.092573E-3,8.761283E-2,-1.7035602E-1,1.7791792E-3,2.495872E-2,1.0688181E-1,-2.4557926E-1,1.2525395E-1,1.4289777E-1,7.167027E-2,-9.560939E-3,7.960416E-2,1.1160008E-1,1.216152E-2,3.7072494E-3,9.573056E-2,5.3030364E-3,-6.8408616E-2],"categories":[],"categories_nodes":[],"categories_segments":[],"categories_sizes":[],"default_left":[0,0,0,0,0,0,0,0,0,0,0,0,0,0,0,0,0,0,0,0,0,0,0,0,0,0,0,0,0,0,0,0,0,0,0,0,0,0,0,0,0,0,0,0,0,0,0,0,0,0,0,0,0,0,0,0,0,0,0,0,0,0,0],"id":15,"left_children":[1,3,5,7,9,11,13,15,17,19,21,23,25,27,29,31,33,35,37,39,41,43,45,47,49,51,53,55,57,59,61,-1,-1,-1,-1,-1,-1,-1,-1,-1,-1,-1,-1,-1,-1,-1,-1,-1,-1,-1,-1,-1,-1,-1,-1,-1,-1,-1,-1,-1,-1,-1,-1],"loss_changes":[2.2852281E4,1.4105924E4,3.7112812E3,7.0960654E3,4.695012E3,2.1217593E3,2.1606953E3,4.273324E3,2.621806E3,2.815939E3,2.083416E3,3.840788E3,1.5424585E2,1.734041E3,3.1536322E2,1.4548418E3,4.189156E3,2.4718147E3,2.6337937E3,2.2431116E3,1.1057725E3,3.5342947E3,2.0452812E3,1.0982534E3,2.1420747E3,1.1127721E3,1.0322485E2,2.8531372E3,8.0450586E2,1.2160013E2,1.0623572E2,0E0,0E0,0E0,0E0,0E0,0E0,0E0,0E0,0E0,0E0,0E0,0E0,0E0,0E0,0E0,0E0,0E0,0E0,0E0,0E0,0E0,0E0,0E0,0E0,0E0,0E0,0E0,0E0,0E0,0E0,0E0,0E0],"parents":[2147483647,0,0,1,1,2,2,3,3,4,4,5,5,6,6,7,7,8,8,9,9,10,10,11,11,12,12,13,13,14,14,15,15,16,16,17,17,18,18,19,19,20,20,21,21,22,22,23,23,24,24,25,25,26,26,27,27,28,28,29,29,30,30],"right_children":[2,4,6,8,10,12,14,16,18,20,22,24,26,28,30,32,34,36,38,40,42,44,46,48,50,52,54,56,58,60,62,-1,-1,-1,-1,-1,-1,-1,-1,-1,-1,-1,-1,-1,-1,-1,-1,-1,-1,-1,-1,-1,-1,-1,-1,-1,-1,-1,-1,-1,-1,-1,-1],"split_conditions":[2.9661596E-1,1.0114481E0,1.0133134E0,1.5699798E-2,5.616936E-1,3.8590333E0,1.8109466E0,6.1144435E-1,-1.9860275E-1,-1.110771E-1,4.5799586E-1,-2.771556E0,-3.0838106E0,3.3220118E-1,1.6825947E0,-4.696275E-1,8.7161696E-1,8.170314E-1,9.2286426E-1,5.412536E-1,-4.020431E-1,-9.8951524E-1,-2.0134408E0,8.405602E-1,2.4700587E0,4.354692E0,-2.4859035E0,-1.6368951E-1,1.2267922E0,2.2989044E0,-7.65945E-3,-6.206351E-2,-3.708755E-2,-2.711498E-2,2.6809571E-2,-5.953721E-3,-6.349711E-2,3.173365E-2,-1.46109415E-2,-5.632969E-2,5.0907217E-2,4.939193E-2,-8.8521955E-4,-5.8214474E-2,3.9966278E-2,-4.092573E-3,8.761283E-2,-1.7035602E-1,1.7791792E-3,2.495872E-2,1.0688181E-1,-2.4557926E-1,1.2525395E-1,1.4289777E-1,7.167027E-2,-9.560939E-3,7.960416E-2,1.1160008E-1,1.216152E-2,3.7072494E-3,9.573056E-2,5.3030364E-3,-6.8408616E-2],"split_indices":[3,19,19,17,26,18,17,26,26,22,14,22,22,17,12,17,12,10,26,17,16,22,22,16,18,18,22,14,14,20,16,0,0,0,0,0,0,0,0,0,0,0,0,0,0,0,0,0,0,0,0,0,0,0,0,0,0,0,0,0,0,0,0],"split_type":[0,0,0,0,0,0,0,0,0,0,0,0,0,0,0,0,0,0,0,0,0,0,0,0,0,0,0,0,0,0,0,0,0,0,0,0,0,0,0,0,0,0,0,0,0,0,0,0,0,0,0,0,0,0,0,0,0,0,0,0,0,0,0],"sum_hessian":[1.1328091E6,8.815572E5,2.5125195E5,6.864782E5,1.9507902E5,1.7597817E5,7.527377E4,4.5364366E5,2.3283453E5,7.243261E4,1.2264641E5,1.7023155E5,5.746629E3,6.928548E4,5.9883022E3,2.1600997E5,2.3763369E5,1.1212507E5,1.2070946E5,3.2225049E4,4.020756E4,8.4765484E4,3.7880918E4,4.0169663E3,1.6621458E5,1.6811204E3,4.0655085E3,4.1576496E4,2.7708979E4,3.1269888E3,2.8613137E3,8.986007E4,1.2614989E5,1.9890973E5,3.8723953E4,9.155644E4,2.0568635E4,7.8025625E4,4.2683836E4,2.6984676E4,5.2403735E3,1.7200123E4,2.3007436E4,9.260592E3,7.550489E4,6.633528E3,3.124739E4,2.835778E3,1.1811882E3,1.5869375E5,7.520833E3,2.0675795E2,1.4743624E3,3.5359993E3,5.295094E2,1.0967299E4,3.0609195E4,2.5737889E4,1.9710908E3,2.7620876E3,3.6490094E2,5.4272046E2,2.3185933E3],"tree_param":{"num_deleted":"0","num_feature":"28","num_nodes":"63","size_leaf_vector":"0"}},{"base_weights":[1.3512413E-3,-6.6788875E-2,2.2513871E-1,-1.0893739E-1,2.2012609E-1,1.5132648E-1,3.9212534E-1,-1.4811133E-1,8.132166E-2,1.7405196E-1,7.1484995E-1,-5.0961956E-2,1.9955912E-1,4.3849307E-1,-8.536243E-2,-2.668293E-1,-6.6454224E-2,1.1862821E-1,-4.8032135E-1,1.2784359E-1,5.216845E-1,9.532535E-2,8.5786134E-1,-1.6151218E-1,6.3623184E-1,2.397769E-1,-1.0567849E-1,3.166057E-1,6.466377E-1,1.1899198E-1,-3.2258514E-1,-9.7877555E-2,-3.5122406E-2,-2.8520875E-2,6.3407742E-3,5.130534E-3,4.200593E-2,2.649641E-2,-1.1971646E-1,7.5053655E-2,9.681879E-3,4.504598E-2,9.2188805E-2,-3.2667708E-2,4.086591E-2,1.3200496E-1,-1.1805914E-2,-1.083035E-1,7.840223E-4,-1.2649126E-2,1.13815986E-1,1.5730757E-2,5.450562E-2,2.6460045E-3,-5.084423E-2,-2.8991152E-2,6.508051E-2,1.04931265E-1,1.9316036E-2,5.7293735E-2,-6.5282225E-3,4.0096465E-2,-5.5824284E-2],"categories":[],"categories_nodes":[],"categories_segments":[],"categories_sizes":[],"default_left":[0,0,0,0,0,0,0,0,0,0,0,0,0,0,0,0,0,0,0,0,0,0,0,0,0,0,0,0,0,0,0,0,0,0,0,0,0,0,0,0,0,0,0,0,0,0,0,0,0,0,0,0,0,0,0,0,0,0,0,0,0,0,0],"id":16,"left_children":[1,3,5,7,9,11,13,15,17,19,21,23,25,27,29,31,33,35,37,39,41,43,45,47,49,51,53,55,57,59,61,-1,-1,-1,-1,-1,-1,-1,-1,-1,-1,-1,-1,-1,-1,-1,-1,-1,-1,-1,-1,-1,-1,-1,-1,-1,-1,-1,-1,-1,-1,-1,-1],"loss_changes":[1.7049803E4,1.0365205E4,3.2166992E3,5.570044E3,2.5023257E3,1.765852E3,1.7711953E3,6.007786E3,2.673705E3,1.6132505E3,8.285879E2,2.6472935E3,1.7940278E3,1.8497217E3,3.4333923E2,3.1831055E3,4.937766E3,1.630544E3,1.6595142E3,2.0903022E3,2.4217041E2,9.739931E1,1.5785986E2,2.8054058E3,4.264602E2,2.1529404E3,4.8947162E2,2.7498286E3,7.376826E2,1.6263031E2,9.5951324E1,0E0,0E0,0E0,0E0,0E0,0E0,0E0,0E0,0E0,0E0,0E0,0E0,0E0,0E0,0E0,0E0,0E0,0E0,0E0,0E0,0E0,0E0,0E0,0E0,0E0,0E0,0E0,0E0,0E0,0E0,0E0,0E0],"parents":[2147483647,0,0,1,1,2,2,3,3,4,4,5,5,6,6,7,7,8,8,9,9,10,10,11,11,12,12,13,13,14,14,15,15,16,16,17,17,18,18,19,19,20,20,21,21,22,22,23,23,24,24,25,25,26,26,27,27,28,28,29,29,30,30],"right_children":[2,4,6,8,10,12,14,16,18,20,22,24,26,28,30,32,34,36,38,40,42,44,46,48,50,52,54,56,58,60,62,-1,-1,-1,-1,-1,-1,-1,-1,-1,-1,-1,-1,-1,-1,-1,-1,-1,-1,-1,-1,-1,-1,-1,-1,-1,-1,-1,-1,-1,-1,-1,-1],"split_conditions":[2.600828E-1,1.0735258E0,1.0069714E0,3.2231438E-1,2.8946962E0,-2.4464417E-1,1.6903253E0,-4.3137702E-1,8.9557743E-1,1.8164911E0,1.0503644E0,3.0053067E0,1.6903253E0,3.4864634E-1,1.6825947E0,-1.8554486E-1,6.3811606E-1,5.2924037E-1,3.2030925E-1,-1.7385278E0,-6.98136E-1,1.032951E0,3.237001E0,-2.4177175E0,-1.4879788E0,5.98903E-1,6.209885E-1,-3.3512056E-1,1.0416809E0,-1.5917787E-2,-1.5246924E0,-9.7877555E-2,-3.5122406E-2,-2.8520875E-2,6.3407742E-3,5.130534E-3,4.200593E-2,2.649641E-2,-1.1971646E-1,7.5053655E-2,9.681879E-3,4.504598E-2,9.2188805E-2,-3.2667708E-2,4.086591E-2,1.3200496E-1,-1.1805914E-2,-1.083035E-1,7.840223E-4,-1.2649126E-2,1.13815986E-1,1.5730757E-2,5.450562E-2,2.6460045E-3,-5.084423E-2,-2.8991152E-2,6.508051E-2,1.04931265E-1,1.9316036E-2,5.7293735E-2,-6.5282225E-3,4.0096465E-2,-5.5824284E-2],"split_indices":[3,19,19,17,20,17,17,14,9,7,27,14,17,17,12,22,26,0,16,7,22,27,16,22,17,3,22,14,14,14,22,0,0,0,0,0,0,0,0,0,0,0,0,0,0,0,0,0,0,0,0,0,0,0,0,0,0,0,0,0,0,0,0],"split_type":[0,0,0,0,0,0,0,0,0,0,0,0,0,0,0,0,0,0,0,0,0,0,0,0,0,0,0,0,0,0,0,0,0,0,0,0,0,0,0,0,0,0,0,0,0,0,0,0,0,0,0,0,0,0,0,0,0,0,0,0,0,0,0],"sum_hessian":[1.1180982E6,8.571185E5,2.6097975E5,7.4733394E5,1.0978458E5,1.8098278E5,7.999697E4,6.1973256E5,1.2760138E5,1.0043255E5,9.352033E3,3.4844477E4,1.4613831E5,7.291631E4,7.080653E3,2.525532E5,3.671793E5,1.19654266E5,7.9471216E3,8.865025E4,1.1782289E4,1.7542589E3,7.5977744E3,3.001644E4,4.8280386E3,1.2912513E5,1.701317E4,4.598846E4,2.6927855E4,3.8041145E3,3.2765386E3,1.9726217E4,2.32827E5,1.7177277E5,1.9540656E5,7.8563555E4,4.1090707E4,2.5910618E3,5.3560596E3,1.2874647E4,7.577561E4,3.4842725E3,8.298017E3,6.3371674E2,1.1205422E3,7.4221284E3,1.7564612E2,6.8812026E3,2.3135236E4,7.017817E2,4.126257E3,6.1738348E4,6.738679E4,1.1130349E4,5.882822E3,8.598867E3,3.7389594E4,2.4431615E4,2.4962405E3,1.452479E3,2.3516355E3,2.5368192E2,3.0228567E3],"tree_param":{"num_deleted":"0","num_feature":"28","num_nodes":"63","size_leaf_vector":"0"}},{"base_weights":[1.317005E-3,-7.454185E-2,1.5812218E-1,-1.2308157E-1,1.2477177E-1,9.007477E-2,3.1853753E-1,-1.7691308E-1,1.2697843E-2,-3.7458606E-2,2.3125005E-1,3.0092869E-2,2.3754358E-1,9.149264E-2,4.0915412E-1,-2.711078E-1,-9.4544455E-2,1.9654948E-1,-1.3052809E-1,-2.5364953E-1,1.1512641E-1,1.8389115E-1,5.537867E-1,-1.6070512E-1,2.134883E-1,3.6283517E-1,-1.5930863E-1,-1.0329081E-1,2.9766145E-1,2.0162733E-1,4.9663314E-1,-5.6319922E-2,-3.369069E-2,-3.4580622E-2,-3.700719E-3,1.20822145E-2,6.901354E-2,-4.278902E-2,-3.734372E-3,-5.1978413E-2,3.90084E-2,-8.525468E-3,3.473314E-2,8.242033E-2,1.8123945E-2,7.007826E-2,1.110056E-1,-7.9898044E-2,-1.3931085E-2,-5.100842E-3,4.9131226E-2,6.41376E-2,-3.3554476E-2,9.025021E-2,-4.520219E-2,-4.7226597E-2,2.1732066E-2,7.5746864E-2,-2.4268914E-2,-1.36709595E-2,6.891751E-2,8.204285E-2,-1.2671982E-2],"categories":[],"categories_nodes":[],"categories_segments":[],"categories_sizes":[],"default_left":[0,0,0,0,0,0,0,0,0,0,0,0,0,0,0,0,0,0,0,0,0,0,0,0,0,0,0,0,0,0,0,0,0,0,0,0,0,0,0,0,0,0,0,0,0,0,0,0,0,0,0,0,0,0,0,0,0,0,0,0,0,0,0],"id":17,"left_children":[1,3,5,7,9,11,13,15,17,19,21,23,25,27,29,31,33,35,37,39,41,43,45,47,49,51,53,55,57,59,61,-1,-1,-1,-1,-1,-1,-1,-1,-1,-1,-1,-1,-1,-1,-1,-1,-1,-1,-1,-1,-1,-1,-1,-1,-1,-1,-1,-1,-1,-1,-1,-1],"loss_changes":[1.3129116E4,7.1967305E3,3.9282617E3,4.372333E3,2.51651E3,2.235104E3,2.2052227E3,3.3235205E3,4.472082E3,1.904346E3,1.3433931E3,6.285379E3,3.6327954E3,1.22797E3,1.3906973E3,9.697168E2,2.1715352E3,2.273502E3,1.5603153E3,1.1396826E3,6.776002E2,1.7681304E3,1.812749E2,2.2210828E3,2.5853555E3,2.1089536E3,1.8951937E3,8.2555786E2,1.4150519E3,1.714927E3,1.5759072E3,0E0,0E0,0E0,0E0,0E0,0E0,0E0,0E0,0E0,0E0,0E0,0E0,0E0,0E0,0E0,0E0,0E0,0E0,0E0,0E0,0E0,0E0,0E0,0E0,0E0,0E0,0E0,0E0,0E0,0E0,0E0,0E0],"parents":[2147483647,0,0,1,1,2,2,3,3,4,4,5,5,6,6,7,7,8,8,9,9,10,10,11,11,12,12,13,13,14,14,15,15,16,16,17,17,18,18,19,19,20,20,21,21,22,22,23,23,24,24,25,25,26,26,27,27,28,28,29,29,30,30],"right_children":[2,4,6,8,10,12,14,16,18,20,22,24,26,28,30,32,34,36,38,40,42,44,46,48,50,52,54,56,58,60,62,-1,-1,-1,-1,-1,-1,-1,-1,-1,-1,-1,-1,-1,-1,-1,-1,-1,-1,-1,-1,-1,-1,-1,-1,-1,-1,-1,-1,-1,-1,-1,-1],"split_conditions":[5.1992055E-2,1.027639E0,9.9913704E-1,1.687796E-2,6.132952E-1,5.6049776E-1,-2.3525096E-3,-5.321392E-1,-5.532942E-1,-1.9849905E-1,1.733401E0,-1.0312028E-1,3.3147132E-1,4.7402647E-1,-3.0511275E-1,-6.803763E-1,5.5261254E-1,4.4011593E-1,4.7478923E-1,4.6291006E-1,-1.3493727E0,-1.7330341E0,4.913041E-1,-5.5762327E-1,-3.7255022E-1,2.0177007E0,-1.6315252E0,-1.6676953E-1,3.7459347E-1,8.942728E-1,1.5922828E0,-5.6319922E-2,-3.369069E-2,-3.4580622E-2,-3.700719E-3,1.20822145E-2,6.901354E-2,-4.278902E-2,-3.734372E-3,-5.1978413E-2,3.90084E-2,-8.525468E-3,3.473314E-2,8.242033E-2,1.8123945E-2,7.007826E-2,1.110056E-1,-7.9898044E-2,-1.3931085E-2,-5.100842E-3,4.9131226E-2,6.41376E-2,-3.3554476E-2,9.025021E-2,-4.520219E-2,-4.7226597E-2,2.1732066E-2,7.5746864E-2,-2.4268914E-2,-1.36709595E-2,6.891751E-2,8.204285E-2,-1.2671982E-2],"split_indices":[3,19,19,0,26,17,26,18,13,22,7,14,14,17,17,18,26,0,26,17,26,7,14,22,17,17,22,22,14,14,17,0,0,0,0,0,0,0,0,0,0,0,0,0,0,0,0,0,0,0,0,0,0,0,0,0,0,0,0,0,0,0,0],"split_type":[0,0,0,0,0,0,0,0,0,0,0,0,0,0,0,0,0,0,0,0,0,0,0,0,0,0,0,0,0,0,0,0,0,0,0,0,0,0,0,0,0,0,0,0,0,0,0,0,0,0,0,0,0,0,0,0,0,0,0,0,0,0,0],"sum_hessian":[1.1037432E6,7.4387406E5,3.598692E5,5.981937E5,1.4568036E5,2.526836E5,1.07185586E5,4.2836322E5,1.6983045E5,5.7727445E4,8.795292E4,1.79624E5,7.305959E4,3.057649E4,7.660909E4,1.9983483E5,2.285284E5,7.436791E4,9.5462555E4,2.3885078E4,3.3842367E4,7.66934E4,1.1259523E4,8.803534E4,9.1588664E4,5.5528562E4,1.753103E4,1.5722624E4,1.4853867E4,2.2718125E4,5.3890973E4,6.1597043E4,1.3823778E5,7.7564055E4,1.5096434E5,5.1639375E4,2.272853E4,3.872938E4,5.6733176E4,2.022831E4,3.6567673E3,1.3662898E4,2.0179467E4,1.1282527E4,6.541087E4,7.688309E3,3.5712148E3,1.3577432E4,7.445791E4,2.8892666E4,6.2696E4,5.0008285E4,5.520277E3,2.7570225E3,1.4774008E4,8.487339E3,7.235285E3,1.0235324E4,4.6185425E3,1.0638438E4,1.2079686E4,4.9596426E4,4.2945454E3],"tree_param":{"num_deleted":"0","num_feature":"28","num_nodes":"63","size_leaf_vector":"0"}},{"base_weights":[1.2959929E-3,-6.200633E-2,1.5937428E-1,-1.4062384E-1,2.0598091E-1,3.3735566E-2,2.642083E-1,-4.3044332E-1,-1.02071136E-1,-6.887797E-2,3.5814926E-1,8.472292E-2,-3.392358E-1,4.1762808E-1,4.4517156E-2,1.29388375E-2,-4.866781E-1,-1.261133E-1,2.8911668E-1,-1.8557452E-1,6.283476E-1,5.009901E-1,1.9795145E-1,-5.3360216E-2,3.279087E-1,2.651477E-1,-5.1154447E-1,4.672917E-1,-2.1123854E-2,8.8745624E-2,-5.455627E-1,-6.452129E-2,2.2854583E-2,-1.0006977E-1,-4.073414E-2,-3.8114812E-2,-1.0285027E-2,2.6135933E-2,7.987921E-2,-1.18423484E-1,6.0869865E-3,5.927275E-3,1.1503652E-1,8.966624E-2,2.0597039E-2,4.478094E-3,5.887034E-2,-2.0364475E-2,3.2498095E-2,6.828304E-2,-1.1190567E-2,5.9085783E-2,-3.4219906E-2,-1.0445579E-1,-1.4968847E-2,2.8144617E-2,8.204045E-2,5.4655094E-2,-4.000751E-2,2.6436964E-2,-1.1966902E-2,-1.3175923E-1,-4.0726997E-2],"categories":[],"categories_nodes":[],"categories_segments":[],"categories_sizes":[],"default_left":[0,0,0,0,0,0,0,0,0,0,0,0,0,0,0,0,0,0,0,0,0,0,0,0,0,0,0,0,0,0,0,0,0,0,0,0,0,0,0,0,0,0,0,0,0,0,0,0,0,0,0,0,0,0,0,0,0,0,0,0,0,0,0],"id":18,"left_children":[1,3,5,7,9,11,13,15,17,19,21,23,25,27,29,31,33,35,37,39,41,43,45,47,49,51,53,55,57,59,61,-1,-1,-1,-1,-1,-1,-1,-1,-1,-1,-1,-1,-1,-1,-1,-1,-1,-1,-1,-1,-1,-1,-1,-1,-1,-1,-1,-1,-1,-1,-1,-1],"loss_changes":[1.0913723E4,1.6407707E4,4.107578E3,6.727801E3,7.3881396E3,2.6976765E3,5.730034E3,1.7626465E3,4.9982485E3,5.121713E3,2.6016377E3,4.1906616E3,1.7768231E3,2.1812168E3,1.8244802E3,4.916803E2,2.4351738E3,3.6874863E3,8.603447E2,7.3646777E3,7.363423E2,2.115504E3,1.7524233E3,1.7711277E3,2.316147E3,2.4052142E2,1.01027295E3,2.0027832E3,9.638348E2,9.589893E2,4.4437537E2,0E0,0E0,0E0,0E0,0E0,0E0,0E0,0E0,0E0,0E0,0E0,0E0,0E0,0E0,0E0,0E0,0E0,0E0,0E0,0E0,0E0,0E0,0E0,0E0,0E0,0E0,0E0,0E0,0E0,0E0,0E0,0E0],"parents":[2147483647,0,0,1,1,2,2,3,3,4,4,5,5,6,6,7,7,8,8,9,9,10,10,11,11,12,12,13,13,14,14,15,15,16,16,17,17,18,18,19,19,20,20,21,21,22,22,23,23,24,24,25,25,26,26,27,27,28,28,29,29,30,30],"right_children":[2,4,6,8,10,12,14,16,18,20,22,24,26,28,30,32,34,36,38,40,42,44,46,48,50,52,54,56,58,60,62,-1,-1,-1,-1,-1,-1,-1,-1,-1,-1,-1,-1,-1,-1,-1,-1,-1,-1,-1,-1,-1,-1,-1,-1,-1,-1,-1,-1,-1,-1,-1,-1],"split_conditions":[2.2149642E-1,3.1898084E-1,-2.2765392E-1,-6.458941E-1,-7.9041374E-1,1.6825947E0,4.8669338E-1,-9.829452E-1,1.8189637E-2,3.615658E0,-2.1937713E-1,7.8138053E-1,4.2736605E-1,1.5093213E0,6.153503E-1,-3.732861E-1,-7.411511E-2,-5.5426675E-1,3.5951123E-1,-2.2420025E0,-1.6576732E0,4.583822E-1,9.657464E-1,-1.3933621E-1,1.868388E-1,1.5963744E0,2.3758454E0,-4.7126088E-1,3.8703553E-2,9.271928E-1,2.3165073E0,-6.452129E-2,2.2854583E-2,-1.0006977E-1,-4.073414E-2,-3.8114812E-2,-1.0285027E-2,2.6135933E-2,7.987921E-2,-1.18423484E-1,6.0869865E-3,5.927275E-3,1.1503652E-1,8.966624E-2,2.0597039E-2,4.478094E-3,5.887034E-2,-2.0364475E-2,3.2498095E-2,6.828304E-2,-1.1190567E-2,5.9085783E-2,-3.4219906E-2,-1.0445579E-1,-1.4968847E-2,2.8144617E-2,8.204045E-2,5.4655094E-2,-4.000751E-2,2.6436964E-2,-1.1966902E-2,-1.3175923E-1,-4.0726997E-2],"split_indices":[17,14,26,22,17,12,22,25,24,14,25,17,16,17,14,14,16,14,24,22,17,16,14,14,14,17,24,14,14,26,17,0,0,0,0,0,0,0,0,0,0,0,0,0,0,0,0,0,0,0,0,0,0,0,0,0,0,0,0,0,0,0,0],"split_type":[0,0,0,0,0,0,0,0,0,0,0,0,0,0,0,0,0,0,0,0,0,0,0,0,0,0,0,0,0,0,0,0,0,0,0,0,0,0,0,0,0,0,0,0,0,0,0,0,0,0,0,0,0,0,0,0,0,0,0,0,0,0,0],"sum_hessian":[1.0906371E6,7.7877706E5,3.1186003E5,6.021338E5,1.7664325E5,1.4185486E5,1.7000517E5,7.0692625E4,5.314412E5,6.2945855E4,1.1369739E5,1.24795375E5,1.7059482E4,1.0010008E5,6.990509E4,7.9569497E3,6.2735676E4,5.0067097E5,3.0770234E4,5.3921586E4,9.02427E3,6.010366E4,5.359373E4,7.959906E4,4.519631E4,3.7845159E3,1.3274966E4,8.992152E4,1.0178552E4,6.50316E4,4.8734873E3,1.904028E3,6.052922E3,3.4115426E4,2.862025E4,1.5529211E5,3.4537888E5,2.0905617E4,9.864617E3,1.4690382E4,3.9231203E4,1.7192905E3,7.3049785E3,4.7469906E4,1.2633755E4,2.8749893E4,2.4843836E4,6.0987418E4,1.8611646E4,3.4335977E4,1.086033E4,3.0013071E3,7.832087E2,9.161747E3,4.113219E3,1.9932986E4,6.998854E4,3.9609004E3,6.2176514E3,4.2806008E4,2.2225596E4,2.1997239E3,2.6737634E3],"tree_param":{"num_deleted":"0","num_feature":"28","num_nodes":"63","size_leaf_vector":"0"}},{"base_weights":[1.3931394E-3,-5.160831E-2,1.6208272E-1,-8.0697976E-2,2.4423797E-1,4.2386524E-2,2.4533021E-1,-1.8896674E-1,-1.7355414E-2,1.7591141E-1,6.755913E-1,-6.942894E-2,1.9333354E-1,2.9573753E-1,3.747575E-2,-2.3512584E-1,9.1167495E-2,-1.3458078E-1,4.3810863E-2,-2.5461426E-1,2.091143E-1,1.6274416E-1,8.2182145E-1,1.3555679E-1,-2.073263E-1,3.2856017E-1,-1.0287673E-1,5.9591554E-2,3.774843E-1,8.441775E-2,-4.1613272E-1,-8.1123136E-2,-2.988561E-2,-3.8974643E-2,5.9333276E-2,-6.577655E-2,-1.5097996E-2,-9.034595E-3,2.2605445E-2,-1.12803265E-1,2.0239016E-2,1.611947E-2,6.0264E-2,-7.1670994E-2,3.5933472E-2,1.103039E-1,1.4892639E-1,-1.7582899E-2,5.0273232E-2,1.337319E-2,-4.086714E-2,5.9120253E-2,-2.3601973E-2,8.7871164E-2,-2.8934147E-2,-1.5005075E-2,7.761025E-2,1.8007128E-2,6.7950614E-2,1.7258858E-2,-6.360527E-2,-1.0903695E-1,-2.3960771E-2],"categories":[],"categories_nodes":[],"categories_segments":[],"categories_sizes":[],"default_left":[0,0,0,0,0,0,0,0,0,0,0,0,0,0,0,0,0,0,0,0,0,0,0,0,0,0,0,0,0,0,0,0,0,0,0,0,0,0,0,0,0,0,0,0,0,0,0,0,0,0,0,0,0,0,0,0,0,0,0,0,0,0,0],"id":19,"left_children":[1,3,5,7,9,11,13,15,17,19,21,23,25,27,29,31,33,35,37,39,41,43,45,47,49,51,53,55,57,59,61,-1,-1,-1,-1,-1,-1,-1,-1,-1,-1,-1,-1,-1,-1,-1,-1,-1,-1,-1,-1,-1,-1,-1,-1,-1,-1,-1,-1,-1,-1,-1,-1],"loss_changes":[9.161637E3,6.9615356E3,2.6585747E3,5.050872E3,2.1342236E3,1.847264E3,1.6487441E3,3.5151484E3,3.3316582E3,8.937019E2,7.4245557E2,1.777265E3,1.865566E3,2.444834E3,6.5406226E2,2.5603584E3,4.108827E3,1.642771E3,3.395687E3,8.6748914E2,1.1365447E3,1.0827159E2,1.1319971E2,1.2758268E3,7.2574146E2,1.018927E3,9.0512756E2,2.3801511E3,1.8290244E3,4.337165E2,2.2942148E2,0E0,0E0,0E0,0E0,0E0,0E0,0E0,0E0,0E0,0E0,0E0,0E0,0E0,0E0,0E0,0E0,0E0,0E0,0E0,0E0,0E0,0E0,0E0,0E0,0E0,0E0,0E0,0E0,0E0,0E0,0E0,0E0],"parents":[2147483647,0,0,1,1,2,2,3,3,4,4,5,5,6,6,7,7,8,8,9,9,10,10,11,11,12,12,13,13,14,14,15,15,16,16,17,17,18,18,19,19,20,20,21,21,22,22,23,23,24,24,25,25,26,26,27,27,28,28,29,29,30,30],"right_children":[2,4,6,8,10,12,14,16,18,20,22,24,26,28,30,32,34,36,38,40,42,44,46,48,50,52,54,56,58,60,62,-1,-1,-1,-1,-1,-1,-1,-1,-1,-1,-1,-1,-1,-1,-1,-1,-1,-1,-1,-1,-1,-1,-1,-1,-1,-1,-1,-1,-1,-1,-1,-1],"split_conditions":[2.7149332E-1,1.1066538E0,3.252508E-1,-3.739158E-1,2.7725E0,4.4322512E-1,4.941732E-1,8.229313E-1,-1.2271551E0,-1.6965648E0,1.0522567E0,-3.454387E-1,3.145529E-1,-5.249317E-1,5.447357E-1,-9.129504E-1,-1.8602552E0,1.3749623E-1,-3.1037074E-1,1.5243295E0,1.634108E-1,-1.1886529E0,5.6529655E0,-2.9639325E-1,-4.9529558E-1,2.0382257E0,-1.9033133E0,2.2619872E0,-3.948967E-1,2.0382257E0,2.329614E0,-8.1123136E-2,-2.988561E-2,-3.8974643E-2,5.9333276E-2,-6.577655E-2,-1.5097996E-2,-9.034595E-3,2.2605445E-2,-1.12803265E-1,2.0239016E-2,1.611947E-2,6.0264E-2,-7.1670994E-2,3.5933472E-2,1.103039E-1,1.4892639E-1,-1.7582899E-2,5.0273232E-2,1.337319E-2,-4.086714E-2,5.9120253E-2,-2.3601973E-2,8.7871164E-2,-2.8934147E-2,-1.5005075E-2,7.761025E-2,1.8007128E-2,6.7950614E-2,1.7258858E-2,-6.360527E-2,-1.0903695E-1,-2.3960771E-2],"split_indices":[23,19,26,17,20,17,22,14,26,22,27,16,14,17,14,22,22,22,14,18,14,17,20,14,13,17,22,14,14,17,17,0,0,0,0,0,0,0,0,0,0,0,0,0,0,0,0,0,0,0,0,0,0,0,0,0,0,0,0,0,0,0,0],"split_type":[0,0,0,0,0,0,0,0,0,0,0,0,0,0,0,0,0,0,0,0,0,0,0,0,0,0,0,0,0,0,0,0,0,0,0,0,0,0,0,0,0,0,0,0,0,0,0,0,0,0,0,0,0,0,0,0,0,0,0,0,0,0,0],"sum_hessian":[1.075714E6,8.089068E5,2.6680712E5,7.364907E5,7.241616E4,1.0944488E5,1.5736223E5,2.718415E5,4.6464916E5,6.2515137E4,9.901019E3,6.287222E4,4.6572668E4,1.2664806E5,3.0714172E4,2.3338556E5,3.845594E4,1.5931681E5,3.0533234E5,4.4755947E3,5.8039543E4,2.1972183E3,7.7038003E3,2.528534E4,3.758688E4,3.1975174E4,1.4597492E4,3.256825E4,9.407981E4,2.7834512E4,2.879661E3,2.4519166E4,2.0886639E5,1.7860555E4,2.0595389E4,1.5997333E4,1.4331947E5,1.5472956E5,1.5060278E5,1.9652384E3,2.5103562E3,3.79935E4,2.0046043E4,2.3471017E2,1.9625082E3,5.1204067E3,2.5833936E3,1.1156665E4,1.4128675E4,6.768991E3,3.0817889E4,2.817328E4,3.801896E3,1.6868263E3,1.2910666E4,2.414897E4,8.419279E3,2.1339363E4,7.2740445E4,2.625317E4,1.5813419E3,1.3009365E3,1.5787245E3],"tree_param":{"num_deleted":"0","num_feature":"28","num_nodes":"63","size_leaf_vector":"0"}},{"base_weights":[1.3345239E-3,-7.9256594E-2,8.6708724E-2,-1.3979843E-1,1.8873677E-1,-2.4774317E-2,1.7475413E-1,-4.4568187E-1,-1.059462E-1,-1.01392694E-1,3.81627E-1,-9.100344E-2,1.5277742E-1,2.8135675E-1,-1.3377567E-2,2.369507E-1,-5.420131E-1,-1.280035E-1,3.297959E-1,-5.7147783E-1,3.9207456E-1,1.69552E-1,5.489235E-1,-4.8435766E-1,-1.51059525E-2,3.3057168E-1,-2.1949692E-1,6.2869966E-2,3.691441E-1,1.0898413E-1,-1.23015866E-1,1.2334635E-1,-2.0516489E-2,-3.0267471E-2,-9.590384E-2,-3.1951502E-2,-5.342518E-3,1.85232E-2,7.762557E-2,6.219658E-3,-1.1450697E-1,-2.4687497E-2,9.357062E-2,5.517795E-2,-4.6800427E-2,6.030993E-2,1.10028826E-1,-2.8613847E-4,-8.39922E-2,-2.1695768E-2,1.8528163E-2,5.7735156E-2,-3.7999593E-2,1.6552893E-2,-6.360507E-2,-1.0909297E-2,9.383643E-2,6.1880518E-2,-2.2174377E-2,2.279807E-2,-5.05963E-2,-2.6401177E-2,1.4326151E-2],"categories":[],"categories_nodes":[],"categories_segments":[],"categories_sizes":[],"default_left":[0,0,0,0,0,0,0,0,0,0,0,0,0,0,0,0,0,0,0,0,0,0,0,0,0,0,0,0,0,0,0,0,0,0,0,0,0,0,0,0,0,0,0,0,0,0,0,0,0,0,0,0,0,0,0,0,0,0,0,0,0,0,0],"id":20,"left_children":[1,3,5,7,9,11,13,15,17,19,21,23,25,27,29,31,33,35,37,39,41,43,45,47,49,51,53,55,57,59,61,-1,-1,-1,-1,-1,-1,-1,-1,-1,-1,-1,-1,-1,-1,-1,-1,-1,-1,-1,-1,-1,-1,-1,-1,-1,-1,-1,-1,-1,-1,-1,-1],"loss_changes":[7.32601E3,8.88677E3,5.075039E3,4.626415E3,5.6486357E3,2.6828923E3,5.7937256E3,2.927669E3,3.866414E3,9.350561E3,2.150921E3,4.9609463E3,4.1026787E3,3.5368223E3,1.401783E3,1.2046774E3,1.2920186E3,3.0070293E3,7.5052734E2,2.4282236E3,2.5368455E3,2.5533052E3,9.18499E2,9.801509E2,2.501295E3,1.3308716E3,1.3517471E3,4.033038E3,2.9509824E3,9.477422E2,6.381898E2,0E0,0E0,0E0,0E0,0E0,0E0,0E0,0E0,0E0,0E0,0E0,0E0,0E0,0E0,0E0,0E0,0E0,0E0,0E0,0E0,0E0,0E0,0E0,0E0,0E0,0E0,0E0,0E0,0E0,0E0,0E0,0E0],"parents":[2147483647,0,0,1,1,2,2,3,3,4,4,5,5,6,6,7,7,8,8,9,9,10,10,11,11,12,12,13,13,14,14,15,15,16,16,17,17,18,18,19,19,20,20,21,21,22,22,23,23,24,24,25,25,26,26,27,27,28,28,29,29,30,30],"right_children":[2,4,6,8,10,12,14,16,18,20,22,24,26,28,30,32,34,36,38,40,42,44,46,48,50,52,54,56,58,60,62,-1,-1,-1,-1,-1,-1,-1,-1,-1,-1,-1,-1,-1,-1,-1,-1,-1,-1,-1,-1,-1,-1,-1,-1,-1,-1,-1,-1,-1,-1,-1,-1],"split_conditions":[-1.0658601E-1,6.52128E-1,-1.6804658E-1,-1.0450366E0,-2.0327191E0,7.0975536E-1,5.642307E-1,-2.4356505E-1,1.4239337E-1,2.3943276E0,6.6444576E-1,-3.8321443E-2,1.607342E-1,-4.1696993E-1,9.221425E-1,-7.499701E-1,-8.253337E-1,7.6892346E-1,7.8440505E-1,-9.4172746E-1,-1.3835434E0,-3.0928506E-2,1.2094772E0,-9.6672875E-1,-1.4086131E0,2.347466E0,8.7161696E-1,7.0975536E-1,1.3763005E0,1.6049888E0,3.3238077E-1,1.2334635E-1,-2.0516489E-2,-3.0267471E-2,-9.590384E-2,-3.1951502E-2,-5.342518E-3,1.85232E-2,7.762557E-2,6.219658E-3,-1.1450697E-1,-2.4687497E-2,9.357062E-2,5.517795E-2,-4.6800427E-2,6.030993E-2,1.10028826E-1,-2.8613847E-4,-8.39922E-2,-2.1695768E-2,1.8528163E-2,5.7735156E-2,-3.7999593E-2,1.6552893E-2,-6.360507E-2,-1.0909297E-2,9.383643E-2,6.1880518E-2,-2.2174377E-2,2.279807E-2,-5.05963E-2,-2.6401177E-2,1.4326151E-2],"split_indices":[17,14,26,22,22,17,22,26,24,14,26,22,14,14,26,17,25,26,26,25,17,16,14,25,26,17,12,17,17,17,0,0,0,0,0,0,0,0,0,0,0,0,0,0,0,0,0,0,0,0,0,0,0,0,0,0,0,0,0,0,0,0,0],"split_type":[0,0,0,0,0,0,0,0,0,0,0,0,0,0,0,0,0,0,0,0,0,0,0,0,0,0,0,0,0,0,0,0,0,0,0,0,0,0,0,0,0,0,0,0,0,0,0,0,0,0,0,0,0,0,0,0,0,0,0,0,0,0,0],"sum_hessian":[1.0647628E6,5.4772456E5,5.1703825E5,4.467913E5,1.00933234E5,2.2815245E5,2.888858E5,4.4518348E4,4.0227297E5,4.0307105E4,6.062613E4,1.6616953E5,6.198292E4,1.843982E5,1.0448759E5,5.505221E3,3.901313E4,3.8289166E5,1.9381291E4,2.0642531E4,1.9664576E4,2.6735996E4,3.3890133E4,2.6875643E4,1.3929389E5,4.1948758E4,2.0034166E4,5.285455E4,1.3154366E5,4.9378637E4,5.510896E4,2.1447542E3,3.360467E3,8.679786E3,3.0333342E4,1.9940997E5,1.834817E5,9.233976E3,1.0147315E4,4.9220605E3,1.572047E4,5.780065E3,1.3884512E4,1.8937783E4,7.7982134E3,1.8876443E4,1.5013688E4,3.6406255E3,2.3235018E4,7.200898E4,6.7284914E4,3.8378188E4,3.570568E3,7.6682705E3,1.23658955E4,4.259182E4,1.026273E4,1.2135759E5,1.0186066E4,4.503947E4,4.339166E3,4.435344E4,1.0755518E4],"tree_param":{"num_deleted":"0","num_feature":"28","num_nodes":"63","size_leaf_vector":"0"}},{"base_weights":[1.3893431E-3,-3.072387E-2,1.8690485E-1,-5.926065E-3,-2.3346984E-1,1.6880949E-1,7.3037386E-1,-2.1180454E-1,2.8724331E-2,-1.3802132E-1,-3.4328768E-1,-1.0058684E0,1.8886682E-1,7.774336E-1,3.0685586E-1,-3.370243E-1,-1.2626241E-1,1.6382527E-2,4.9095955E-1,-1.9684894E-1,3.3231203E-2,-3.8420328E-1,3.353263E-2,-7.2131827E-3,-1.5758986E0,1.686145E-1,6.844281E-1,6.3387793E-1,8.7906164E-1,-2.3528963E-1,6.3028103E-1,-5.4951277E-2,2.0109657E-2,-2.2296261E-2,3.766557E-2,7.034323E-2,4.0793765E-4,7.549055E-2,-5.3809553E-2,2.5600323E-2,-3.371993E-2,2.3830472E-2,-9.626715E-3,-5.978049E-2,6.190189E-2,-1.6067466E-2,3.4045864E-2,-1.4427629E-1,2.537447E-2,-2.8383967E-1,-1.40389E-1,-1.1221271E-1,3.0083034E-2,1.14462584E-1,1.8271333E-2,-1.2522149E-2,1.3888639E-1,1.4023732E-1,1.0830562E-1,6.0094103E-2,-1.3200681E-1,1.17469765E-1,2.502894E-2],"categories":[],"categories_nodes":[],"categories_segments":[],"categories_sizes":[],"default_left":[0,0,0,0,0,0,0,0,0,0,0,0,0,0,0,0,0,0,0,0,0,0,0,0,0,0,0,0,0,0,0,0,0,0,0,0,0,0,0,0,0,0,0,0,0,0,0,0,0,0,0,0,0,0,0,0,0,0,0,0,0,0,0],"id":21,"left_children":[1,3,5,7,9,11,13,15,17,19,21,23,25,27,29,31,33,35,37,39,41,43,45,47,49,51,53,55,57,59,61,-1,-1,-1,-1,-1,-1,-1,-1,-1,-1,-1,-1,-1,-1,-1,-1,-1,-1,-1,-1,-1,-1,-1,-1,-1,-1,-1,-1,-1,-1,-1,-1],"loss_changes":[6.26794E3,4.5091035E3,1.5266357E3,5.700753E3,1.02446E3,3.5401602E3,9.946045E1,1.233083E3,